tree
version=v3
num_class=4
num_tree_per_iteration=4
label_index=0
max_feature_idx=6
objective=multiclass num_class:4
feature_names=Column_0 Column_1 Column_2 Column_3 Column_4 Column_5 Column_6
feature_infos=[0.002:1.1839999999999999] [0.019:6.6120000000000001] [1.0229999999999999:23.055] [1:2.4089999999999998] [1.0229999999999999:36.220999999999997] [1.0229999999999999:54.000999999999998] [1:89.492000000000004]
tree_sizes=609 621 633 623 611 634 743 628 616 633 744 635 617 739 741 635 620 633 742 636 617 741 431 715 624 636 743 733 629 736 740 638 633 636 741 713 623 637 742 734 612 737 740 736 613 736 743 732 633 637 736 737 624 741 743 734 622 736 739 735 530 618 742 735 625 640 742 734 623 621 702 735 532 615 724 737 627 711 719 739 621 728 719 736 624 745 742 637 637 745 741 628 603 744 741 739 723 722 739 737 636 742 743 742 611 642 743 639 639 742 741 740 519 724 743 636 525 640 744 742 733 742 699 731 610 646 735 730 526 641 702 736 625 645 739 739 537 745 703 641 618 644 702 827 537 633 741 741 629 623 742 741 536 635 701 844 624 744 745 743 536 747 723 722 534 636 747 719 626 732 747 835 627 722 743 721 643 741 745 835 730 646 738 742 536 738 726 719 743 729 747 824 641 733 701 643 745 744 745 642 624 745 745 741 641 623 742 743 642 842 744 743 847 745 724 742 640 838 748 742 744 845 746 726 625 744 743 645 638 746 748 744 743 733 747 741 641 848 743 847 626 744 744 643 640 849 748 843 624 814 744 644 639 743 748 843 628 815 746 843 641 743 748 741 835 746 746 738 851 752 746 825 641 910 832 748 745 746 744 740 627 748 747 742 787 746 741 749 842 832 750 846 642 744 742 844 847 830 747 826 641 730 749 747 643 747 741 846 845 849 741 743 539 821 736 850 641 644 721 751 848 909 746 825 541 820 740 747 845 730 732 947 736 813 724 846 540 642 850 831 540 749 721 848 733 816 738 646 746 851 845 932 827 742 734 644 736 845 727 743 748 645 741 848 737 918 850 849 749 912 624 848 729 745 749 850 723 744 729 745 621 744 755 832 733 834 751 850 619 712 840 849 728 829 725 853 851 711 750 851

Tree=0
num_leaves=5
num_cat=0
split_feature=6 4 6 2
split_gain=28.5667 4.31028 2.71326 0.373938
threshold=4.1290000000000004 9.4320000000000022 2.8485 5.2230000000000016
decision_type=2 2 2 2
left_child=2 3 -1 -2
right_child=1 -3 -4 -5
leaf_value=-1.1560005912745748 -1.0363088975509855 -0.98128152543619374 -1.0979467509966219 -1.0669290970856113
leaf_weight=28.241304337978363 8.9654934406280535 17.482712209224701 12.103416144847868 9.8620427846908552
leaf_count=63 20 39 27 22
internal_value=0 0.641637 -0.57779 0.297169
internal_weight=0 36.3102 40.3447 18.8275
internal_count=171 81 90 42
shrinkage=1


Tree=1
num_leaves=5
num_cat=0
split_feature=1 3 5 1
split_gain=24.8978 8.76515 6.52175 3.19867
threshold=0.13300000000000003 1.2895000000000001 3.1105000000000005 0.17500000000000002
decision_type=2 2 2 2
left_child=1 2 -1 -2
right_child=3 -3 -4 -5
leaf_value=-1.021396672461341 -1.0533777466016589 -1.0527458375494805 -0.91391149727201937 -1.1200737878523137
leaf_weight=9.566020220518114 10.021544992923735 14.121267944574354 15.032317489385603 29.153585433959961
leaf_count=21 22 31 33 64
internal_value=0 0.567206 0.925571 -0.560644
internal_weight=0 38.7196 24.5983 39.1751
internal_count=171 85 54 86
shrinkage=1


Tree=2
num_leaves=5
num_cat=0
split_feature=0 2 0 0
split_gain=43.1985 5.64808 0.0183384 0.194246
threshold=0.076500000000000012 2.7815000000000007 0.0075000000000000006 0.016500000000000004
decision_type=2 2 2 2
left_child=1 -1 -3 -4
right_child=-2 2 3 -5
leaf_value=-1.6634853292495664 -1.4587828591192245 -1.7668615194591284 -1.7383201270000874 -1.7609314981163895
leaf_weight=7.4210867285728446 5.9368693828582755 11.576895296573637 10.389521420001985 15.435860395431517
leaf_count=25 20 39 35 52
internal_value=0 -0.339252 -0.49843 -0.448483
internal_weight=0 44.8234 37.4023 25.8254
internal_count=171 151 126 87
shrinkage=1


Tree=3
num_leaves=5
num_cat=0
split_feature=6 4 1 1
split_gain=5.54928 5.27676 3.63392 0.912869
threshold=3.6465000000000005 9.4320000000000022 0.10250000000000001 0.13300000000000003
decision_type=2 2 2 2
left_child=3 2 -2 -1
right_child=1 -3 -4 -5
leaf_value=-2.1062586063846731 -2.0436421832209546 -2.0720604904530742 -1.9259885810462267 -2.0565966515363954
leaf_weight=12.107109546661379 4.4841146469116229 8.7440235614776594 6.9503777027130127 6.0535547733306876
leaf_count=54 20 39 31 27
internal_value=0 0.359253 0.802665 -0.398736
internal_weight=0 20.1785 11.4345 18.1607
internal_count=171 90 51 81
shrinkage=1


Tree=4
num_leaves=5
num_cat=0
split_feature=6 6 6 3
split_gain=24.675 3.6613 2.53348 1.06643
threshold=4.1290000000000004 6.5130000000000008 2.8485 1.5625000000000002
decision_type=2 2 2 2
left_child=2 -2 -1 -3
right_child=1 3 -4 -5
leaf_value=-0.072133088849541477 0.012089156173792217 0.052118828792196793 -0.015517960227428655 0.098771549680522819
leaf_weight=27.191355168819427 12.2500002682209 10.589524269104006 11.989482194185255 14.43505948781967
leaf_count=63 27 23 27 31
internal_value=0 0.581294 -0.552294 0.79996
internal_weight=0 37.2746 39.1808 25.0246
internal_count=171 81 90 54
shrinkage=0.1


Tree=5
num_leaves=5
num_cat=0
split_feature=1 3 0 1
split_gain=21.8692 7.44328 5.01837 1.95561
threshold=0.17500000000000002 1.2995000000000003 0.020500000000000004 0.049500000000000009
decision_type=2 2 2 2
left_child=1 2 3 -1
right_child=-2 -3 -4 -5
leaf_value=0.12535436738984049 -0.069988134077601891 -0.017062510829956419 0.0037343575461612644 0.063557130415340279
leaf_weight=9.9692463576793688 28.195494890213013 15.382095515727995 9.6552436649799329 14.480875968933104
leaf_count=21 64 34 21 31
internal_value=0 0.400255 0.660141 0.899725
internal_weight=0 49.4875 34.1054 24.4501
internal_count=171 107 73 52
shrinkage=0.1


Tree=6
num_leaves=6
num_cat=0
split_feature=0 2 6 0 0
split_gain=33.141 5.11788 0.0202963 0.189318 0.335946
threshold=0.076500000000000012 2.7815000000000007 8.5925000000000029 0.0075000000000000006 0.018500000000000003
decision_type=2 2 2 2 2
left_child=1 -1 3 -3 -5
right_child=-2 2 -4 4 -6
leaf_value=0.039662071758844328 0.19815258743207065 -0.057806930933462265 -0.058396961342504154 -0.015147641645114949 -0.047647637909033314
leaf_weight=7.7099773883819571 7.0377941727638236 9.0048371851444262 10.829920142889021 6.8971588909626034 9.2313041687011701
leaf_count=25 20 32 38 24 32
internal_value=0 -0.328076 -0.48754 -0.437759 -0.347176
internal_weight=0 43.6732 35.9632 25.1333 16.1285
internal_count=171 151 126 88 56
shrinkage=0.1


Tree=7
num_leaves=5
num_cat=0
split_feature=6 5 1 1
split_gain=5.00395 4.3939 2.74417 0.85158
threshold=3.6465000000000005 12.222000000000001 0.10250000000000001 0.13300000000000003
decision_type=2 2 2 2
left_child=3 2 -2 -1
right_child=1 -3 -4 -5
leaf_value=-0.055024275594685014 0.006624308983640366 -0.020549797954560543 0.10733967186732113 -0.006678019460520589
leaf_weight=11.451705023646356 4.506448909640314 8.5707824975252134 7.6517162621021271 6.1252983659505835
leaf_count=54 20 39 31 27
internal_value=0 0.331474 0.715298 -0.390036
internal_weight=0 20.7289 12.1582 17.577
internal_count=171 90 51 81
shrinkage=0.1


Tree=8
num_leaves=5
num_cat=0
split_feature=6 6 6 3
split_gain=21.3573 2.97634 2.42658 0.855687
threshold=4.1290000000000004 6.5130000000000008 2.8485 1.5625000000000002
decision_type=2 2 2 2
left_child=2 -2 -1 -3
right_child=1 3 -4 -5
leaf_value=-0.069909103757464924 0.011219259045258939 0.047201531324685873 -0.013926918961851643 0.088803561450648411
leaf_weight=26.11505913734436 12.306475847959517 10.808436483144762 11.828642487525938 14.904604345560072
leaf_count=63 27 23 27 31
internal_value=0 0.528858 -0.528838 0.722014
internal_weight=0 38.0195 37.9437 25.713
internal_count=171 81 90 54
shrinkage=0.1


Tree=9
num_leaves=5
num_cat=0
split_feature=1 3 0 1
split_gain=19.3218 6.22269 4.24156 1.64914
threshold=0.17500000000000002 1.2995000000000003 0.020500000000000004 0.049500000000000009
decision_type=2 2 2 2
left_child=1 2 3 -1
right_child=-2 -3 -4 -5
leaf_value=0.11384527724262138 -0.067548617595269492 -0.015735294729435415 0.0028493088689295377 0.057685484748877296
leaf_weight=10.270370036363603 27.169969230890274 15.232134908437727 9.6926968395709974 14.784497678279875
leaf_count=21 64 34 21 31
internal_value=0 0.369023 0.60221 0.818215
internal_weight=0 49.9797 34.7476 25.0549
internal_count=171 107 73 52
shrinkage=0.1


Tree=10
num_leaves=6
num_cat=0
split_feature=0 2 6 0 0
split_gain=26.5378 4.66687 0.0211225 0.18018 0.342088
threshold=0.076500000000000012 2.7815000000000007 8.5925000000000029 0.0075000000000000006 0.018500000000000003
decision_type=2 2 2 2 2
left_child=1 -1 3 -3 -5
right_child=-2 2 -4 4 -6
leaf_value=0.03595098818717312 0.16540009838046998 -0.056891768604993058 -0.057516383290950782 -0.014000032357537143 -0.046960929176020363
leaf_weight=7.9578182101249686 7.9296639263629904 8.5171109437942523 10.273606717586516 6.7652112841606131 9.0069696307182294
leaf_count=25 20 32 38 24 32
internal_value=0 -0.317161 -0.477008 -0.427049 -0.338013
internal_weight=0 42.5207 34.5629 24.2893 15.7722
internal_count=171 151 126 88 56
shrinkage=0.1


Tree=11
num_leaves=5
num_cat=0
split_feature=6 6 1 1
split_gain=4.5364 3.82699 4.26132 0.804767
threshold=3.6465000000000005 6.1555000000000009 0.31750000000000006 0.13300000000000003
decision_type=2 2 2 2
left_child=3 -2 -3 -1
right_child=1 2 -4 -5
leaf_value=-0.054467748117287378 0.083113761618861637 -0.054473025606395491 0.059141926574991413 -0.0070257743961725768
leaf_weight=10.844092518091204 8.2703048586845416 7.1254012882709485 5.7944787293672562 6.160009339451789
leaf_count=54 33 32 25 27
internal_value=0 0.308313 -0.0263049 -0.381439
internal_weight=0 21.1902 12.9199 17.0041
internal_count=171 90 57 81
shrinkage=0.1


Tree=12
num_leaves=5
num_cat=0
split_feature=6 5 6 4
split_gain=18.5432 2.4736 2.34307 0.198465
threshold=4.1290000000000004 12.222000000000001 2.8485 7.2895000000000012
decision_type=2 2 2 2
left_child=2 3 -1 -2
right_child=1 -3 -4 -5
leaf_value=-0.067979607505290474 0.032816839695701011 0.074068068566717854 -0.012356893770903902 0.010331051607738563
leaf_weight=25.008971840143204 9.7049753069877642 19.037868708372116 11.656783521175383 9.8146818280220014
leaf_count=63 21 39 27 21
internal_value=0 0.48337 -0.507303 0.222373
internal_weight=0 38.5575 36.6658 19.5197
internal_count=171 81 90 42
shrinkage=0.1


Tree=13
num_leaves=6
num_cat=0
split_feature=1 3 0 1 0
split_gain=17.1309 5.28781 4.40778 1.30221 0.0597672
threshold=0.17500000000000002 1.2855000000000001 0.020500000000000004 0.075500000000000012 0.011500000000000002
decision_type=2 2 2 2 2
left_child=1 2 4 -3 -1
right_child=-2 3 -4 -5 -6
leaf_value=0.095727098016387194 -0.065387731578777614 0.019139965595307954 0.0020982468294659063 -0.032574733061322192 0.06993349065107908
leaf_weight=10.936882287263876 26.100779384374619 9.1229012906551379 9.7152548134326917 9.771466135978697 10.706348866224287
leaf_count=22 64 20 21 22 22
internal_value=0 0.341556 0.592432 -0.0714231 0.841826
internal_weight=0 50.2529 31.3585 18.8944 21.6432
internal_count=171 107 65 42 44
shrinkage=0.1


Tree=14
num_leaves=6
num_cat=0
split_feature=0 2 6 0 0
split_gain=21.9221 4.2695 0.0227119 0.170403 0.344169
threshold=0.076500000000000012 2.7815000000000007 8.5925000000000029 0.0075000000000000006 0.018500000000000003
decision_type=2 2 2 2 2
left_child=1 -1 3 -3 -5
right_child=-2 2 -4 4 -6
leaf_value=0.032760800986794063 0.14292207452228883 -0.056005746149947327 -0.056702485590379985 -0.013018653561603161 -0.04627582865020944
leaf_weight=8.178081274032591 8.6190974414348585 8.0246641188859957 9.7391809672117216 6.6537522971630088 8.7826912105083448
leaf_count=25 20 32 38 24 32
internal_value=0 -0.306563 -0.466796 -0.416522 -0.3293
internal_weight=0 41.3784 33.2003 23.4611 15.4364
internal_count=171 151 126 88 56
shrinkage=0.1


Tree=15
num_leaves=5
num_cat=0
split_feature=6 6 0 1
split_gain=4.11923 3.35419 3.21407 0.76287
threshold=3.6465000000000005 9.9195000000000011 0.0085000000000000023 0.13300000000000003
decision_type=2 2 2 2
left_child=3 2 -2 -1
right_child=1 -3 -4 -5
leaf_value=-0.053937241102600432 -0.01117552837719559 -0.026412063827289958 0.087530550713044913 -0.007259643897976821
leaf_weight=10.254643008112909 4.5674728602170971 7.0435928404331198 9.9942061454057676 6.1818640232086173
leaf_count=54 20 33 37 27
internal_value=0 0.287869 0.561606 -0.372809
internal_weight=0 21.6053 14.5617 16.4365
internal_count=171 90 57 81
shrinkage=0.1


Tree=16
num_leaves=5
num_cat=0
split_feature=6 6 6 3
split_gain=16.1708 2.23845 2.10643 0.663948
threshold=4.1290000000000004 2.8485 6.5130000000000008 1.5625000000000002
decision_type=2 2 2 2
left_child=1 -1 -2 -4
right_child=2 -3 3 -5
leaf_value=-0.066234599017444315 0.0092510941397728596 -0.011257236031427129 0.038570691650850392 0.074686337379528109
leaf_weight=23.852670162916183 12.427864432334898 11.524833858013151 11.131117820739748 15.370481193065642
leaf_count=63 27 27 23 31
internal_value=0 -0.487698 0.443853 0.602942
internal_weight=0 35.3775 38.9295 26.5016
internal_count=171 90 81 54
shrinkage=0.1


Tree=17
num_leaves=5
num_cat=0
split_feature=1 3 0 1
split_gain=15.2583 4.53847 3.18172 1.39017
threshold=0.17500000000000002 1.2995000000000003 0.020500000000000004 0.049500000000000009
decision_type=2 2 2 2
left_child=1 2 3 -1
right_child=-2 -3 -4 -5
leaf_value=0.098737054787652212 -0.063470667890198146 -0.013708107829051214 0.0014615173443697116 0.047923053848388575
leaf_weight=10.464511305093767 25.0228351354599 14.98150923848152 9.7242142260074598 15.141555577516554
leaf_count=21 64 34 21 31
internal_value=0 0.317667 0.512999 0.696812
internal_weight=0 50.3118 35.3303 25.6061
internal_count=171 107 73 52
shrinkage=0.1


Tree=18
num_leaves=6
num_cat=0
split_feature=0 2 6 3 0
split_gain=18.5052 3.94053 0.0263508 0.171946 0.442692
threshold=0.076500000000000012 2.7815000000000007 8.5925000000000029 1.2485000000000002 0.0075000000000000006
decision_type=2 2 2 2 2
left_child=1 -1 3 -3 -5
right_child=-2 2 -4 4 -6
leaf_value=0.030298810658662013 0.12661746190715589 -0.056428631615096182 -0.05598191924840086 -0.054466641357422935 -0.017220216358252903
leaf_weight=8.3512457609176618 9.1319755613803846 6.919214189052588 9.2516120970249158 5.9181800186634055 9.8063485622405988
leaf_count=25 20 26 38 25 37
internal_value=0 -0.296021 -0.456887 -0.405921 -0.323745
internal_weight=0 40.2466 31.8954 22.6437 15.7245
internal_count=171 151 126 88 62
shrinkage=0.1


Tree=19
num_leaves=5
num_cat=0
split_feature=6 2 0 1
split_gain=3.71495 2.87755 1.46126 0.724506
threshold=3.6465000000000005 7.0040000000000004 0.0095000000000000015 0.13300000000000003
decision_type=2 2 2 2
left_child=3 2 -2 -1
right_child=1 -3 -4 -5
leaf_value=-0.053409667943743661 0.0029236803974363752 -0.025458144224876425 0.071967636308870361 -0.0073725639166717016
leaf_weight=9.664389491081236 4.780756130814555 6.8674218356609336 10.355996772646902 6.1898197382688513
leaf_count=54 21 33 36 27
internal_value=0 0.267665 0.511355 -0.363745
internal_weight=0 22.0042 15.1368 15.8542
internal_count=171 90 57 81
shrinkage=0.1


Tree=20
num_leaves=5
num_cat=0
split_feature=6 6 2 6
split_gain=14.1721 2.1741 1.81314 0.369937
threshold=4.1290000000000004 2.8485 7.0040000000000004 6.5130000000000008
decision_type=2 2 2 2
left_child=1 -1 3 -2
right_child=2 -3 -4 -5
leaf_value=-0.06477044423250522 0.0088045073013662475 -0.0099411473354808801 0.066457386994844644 0.035952190777645443
leaf_weight=22.747081339359283 12.446329504251482 11.360318541526793 16.415397047996521 10.25930196046829
leaf_count=63 27 27 33 21
internal_value=0 -0.469641 0.409856 0.217143
internal_weight=0 34.1074 39.121 22.7056
internal_count=171 90 81 48
shrinkage=0.1


Tree=21
num_leaves=6
num_cat=0
split_feature=1 3 0 1 0
split_gain=13.5871 3.87826 3.34876 1.07923 0.0514009
threshold=0.17500000000000002 1.2855000000000001 0.020500000000000004 0.075500000000000012 0.011500000000000002
decision_type=2 2 2 2 2
left_child=1 2 4 -3 -1
right_child=-2 3 -4 -5 -6
leaf_value=0.082869777229711214 -0.061716610204620284 0.017535094622270195 0.00087237653412957283 -0.029799327626788219 0.059707751722362458
leaf_weight=10.933182835578924 23.920973807573318 9.1554530560970324 9.7223283946514112 9.5063134431838971 10.911481171846388
leaf_count=22 64 20 21 22 22
internal_value=0 0.295369 0.508296 -0.0610721 0.724006
internal_weight=0 50.2288 31.567 18.6618 21.8447
internal_count=171 107 65 42 44
shrinkage=0.1


Tree=22
num_leaves=3
num_cat=0
split_feature=2 2
split_gain=16.0548 3.09346
threshold=2.2520000000000002 3.3220000000000005
decision_type=2 2
left_child=-1 -2
right_child=1 -3
leaf_value=0.10771314116175097 0.017127465788478645 -0.04730012223524302
leaf_weight=10.534122645854948 9.6890961080789548 28.425637558102608
leaf_count=24 30 117
internal_value=0 -0.306572
internal_weight=0 38.1147
internal_count=171 147
shrinkage=0.1


Tree=23
num_leaves=6
num_cat=0
split_feature=3 0 6 5 2
split_gain=3.4249 2.95153 2.56358 1.87101 0.558674
threshold=1.1870000000000001 0.0085000000000000023 9.9195000000000011 8.4295000000000027 4.7645000000000008
decision_type=2 2 2 2 2
left_child=-1 4 3 -3 -2
right_child=1 2 -4 -5 -6
leaf_value=-0.053609293108232307 -0 0.024596629782366514 -0.018169685152033543 0.098581171689824568 -0.052528354075956456
leaf_weight=8.7554552853107435 3.6522877514362353 8.0696222633123416 5.5447367429733267 6.6971535533666602 4.8858106583356857
leaf_count=47 20 30 27 23 24
internal_value=0 0.171185 0.379764 0.596878 -0.310901
internal_weight=0 28.8496 20.3115 14.7668 8.5381
internal_count=171 124 80 53 44
shrinkage=0.1


Tree=24
num_leaves=5
num_cat=0
split_feature=5 6 0 3
split_gain=12.6517 3.23995 1.97105 0.565936
threshold=5.5700000000000012 6.5130000000000008 0.015500000000000002 1.5625000000000002
decision_type=2 2 2 2
left_child=-1 2 -2 -3
right_child=1 3 -4 -5
leaf_value=-0.063560624595768458 -0.023282173190124468 0.031424916598303307 0.035053839503719507 0.064356438497566823
leaf_weight=21.698647499084473 14.073031276464464 11.313198000192644 9.5444257557392103 15.430351078510283
leaf_count=63 33 23 21 31
internal_value=0 0.27432 0 0.511334
internal_weight=0 50.361 23.6175 26.7435
internal_count=171 108 54 54
shrinkage=0.1


Tree=25
num_leaves=5
num_cat=0
split_feature=0 3 0 3
split_gain=12.2701 8.85832 2.73986 0.704541
threshold=0.024500000000000004 1.2855000000000001 0.010500000000000001 1.1505000000000003
decision_type=2 2 2 2
left_child=1 3 -3 -1
right_child=-2 2 -4 -5
leaf_value=0.085475506788134259 -0.066742609926693536 0.0093914885014478987 -0.056694344519344145 0.048657770674378417
leaf_weight=10.882160723209383 19.801260054111481 14.981985092163088 10.30084392428398 16.936687916517258
leaf_count=22 53 34 27 35
internal_value=0 0.251086 -0.173747 0.639243
internal_weight=0 53.1017 25.2828 27.8188
internal_count=171 118 61 57
shrinkage=0.1


Tree=26
num_leaves=6
num_cat=0
split_feature=0 2 6 3 0
split_gain=13.9423 3.29078 0.0340732 0.209013 0.453428
threshold=0.076500000000000012 2.7815000000000007 8.5925000000000029 1.2485000000000002 0.0075000000000000006
decision_type=2 2 2 2 2
left_child=1 -1 3 -3 -5
right_child=-2 2 -4 4 -6
leaf_value=0.025095245074675178 0.10544174392675715 -0.055603506698205254 -0.054650992397388458 -0.053078874527668365 -0.014132252678460714
leaf_weight=8.7253950834274274 9.6956079602241498 6.5235606878995958 8.3229683041572553 5.3099875450134268 9.2635831087827665
leaf_count=25 20 26 38 25 37
internal_value=0 -0.27692 -0.437489 -0.385056 -0.295261
internal_weight=0 38.1455 29.4201 21.0971 14.5736
internal_count=171 151 126 88 62
shrinkage=0.1


Tree=27
num_leaves=6
num_cat=0
split_feature=6 0 6 2 3
split_gain=3.1654 2.14726 2.71211 1.02628 0.434849
threshold=3.1795000000000004 0.0085000000000000023 9.9195000000000011 5.2230000000000016 1.1870000000000001
decision_type=2 2 2 2 2
left_child=4 -2 3 -3 -1
right_child=1 2 -4 -5 -6
leaf_value=-0.053115065522161269 -0.02480173023206891 0.032702988065848468 -0.017099293887064361 0.095209532650862877 -0.011013390375802991
leaf_weight=8.2808309942483884 6.7976436913013485 6.1412306278944033 5.4156465232372275 6.1572414487600327 4.5801719278097144
leaf_count=47 35 20 27 20 22
internal_value=0 0.215715 0.400033 0.658198 -0.392853
internal_weight=0 24.5118 17.7141 12.2985 12.861
internal_count=171 102 67 40 69
shrinkage=0.1


Tree=28
num_leaves=5
num_cat=0
split_feature=2 5 1 6
split_gain=11.3729 2.82333 1.87211 1.47029
threshold=3.8485000000000005 12.222000000000001 0.17500000000000002 4.1290000000000004
decision_type=2 2 2 2
left_child=-1 2 3 -2
right_child=1 -3 -4 -5
leaf_value=-0.059292953547364795 -0.042649170716322682 0.057110193005315196 0.037679397873035841 0.013712776433241964
leaf_weight=22.05952650308609 8.5184311568737083 18.837181657552719 12.044807255268095 9.348288565874098
leaf_count=66 22 38 25 20
internal_value=0 0.269199 0.07322 -0.127804
internal_weight=0 48.7487 29.9115 17.8667
internal_count=171 105 67 42
shrinkage=0.1


Tree=29
num_leaves=6
num_cat=0
split_feature=0 3 5 0 1
split_gain=10.9988 7.65762 1.93172 1.80051 0.459613
threshold=0.024500000000000004 1.2995000000000003 6.0085000000000006 0.0095000000000000015 0.08900000000000001
decision_type=2 2 2 2 2
left_child=1 2 4 -3 -1
right_child=-2 3 -4 -5 -6
leaf_value=0.053073490163178229 -0.065220782161478585 0.0035487292994789013 0.017577022526230075 -0.0539177753517067 0.089242324073719959
leaf_weight=10.756467491388326 18.836046248674393 11.369880199432375 10.419486194849013 9.7355143129825574 10.389350801706312
leaf_count=22 53 26 22 27 21
internal_value=0 0.234257 0.545619 -0.227474 0.719821
internal_weight=0 52.6707 31.5653 21.1054 21.1458
internal_count=171 118 65 53 43
shrinkage=0.1


Tree=30
num_leaves=6
num_cat=0
split_feature=5 2 2 2 1
split_gain=12.0752 1.72742 0.0247279 0.343288 0.00223736
threshold=3.1105000000000005 3.3220000000000005 4.7645000000000008 5.5140000000000002 0.18750000000000003
decision_type=2 2 2 2 2
left_child=-1 -2 -3 -4 -5
right_child=1 2 3 4 -6
leaf_value=0.075675149106784745 0.010633972905694285 -0.055412472023342624 -0.012535214216796859 -0.034089894023548527 -0.055404242143249606
leaf_weight=14.24943223595619 6.494983732700347 8.8805705606937426 4.7179844826459911 5.0996903628110868 7.427622526884079
leaf_count=33 21 39 21 24 33
internal_value=0 -0.340302 -0.455101 -0.392608 -0.481852
internal_weight=0 32.6209 26.1259 17.2453 12.5273
internal_count=171 138 117 78 57
shrinkage=0.1


Tree=31
num_leaves=5
num_cat=0
split_feature=6 0 5 3
split_gain=2.88751 1.91592 2.29623 0.416351
threshold=3.1795000000000004 0.0085000000000000023 12.222000000000001 1.1870000000000001
decision_type=2 2 2 2
left_child=3 -2 -3 -1
right_child=1 2 -4 -5
leaf_value=-0.052570766777834226 -0.024000737219485879 0.063838738293432992 -0.0088559506056255562 -0.010804981741000787
leaf_weight=7.7833517044782621 6.6535202115774181 11.597729086875917 6.4588953852653495 4.5582023710012436
leaf_count=47 35 36 31 22
internal_value=0 0.204612 0.374758 -0.383607
internal_weight=0 24.7101 18.0566 12.3416
internal_count=171 102 67 69
shrinkage=0.1


Tree=32
num_leaves=5
num_cat=0
split_feature=5 6 0 3
split_gain=10.1914 2.38055 1.62487 0.438863
threshold=5.5700000000000012 6.5130000000000008 0.015500000000000002 1.5625000000000002
decision_type=2 2 2 2
left_child=-1 2 -2 -3
right_child=1 3 -4 -5
leaf_value=-0.061110766377361125 -0.02141717667518736 0.026802151261744719 0.03162247944766524 0.056039291446897649
leaf_weight=19.461670845746994 13.761269479990007 11.378685623407366 9.6451757550239545 15.200461149215696
leaf_count=63 33 23 21 31
internal_value=0 0.238252 0.00098189 0.441898
internal_weight=0 49.9856 23.4064 26.5791
internal_count=171 108 54 54
shrinkage=0.1


Tree=33
num_leaves=5
num_cat=0
split_feature=0 3 0 3
split_gain=9.99136 6.65005 2.30532 0.600612
threshold=0.024500000000000004 1.2855000000000001 0.010500000000000001 1.1505000000000003
decision_type=2 2 2 2
left_child=1 3 -3 -1
right_child=-2 2 -4 -5
leaf_value=0.075533654591576557 -0.063925038935492534 0.0085211467232494103 -0.053524933718565953 0.041550759602039508
leaf_weight=10.864507734775545 17.963346153497696 14.980767875909807 9.5046591162681562 16.723853439092636
leaf_count=22 53 34 27 35
internal_value=0 0.22169 -0.153971 0.557407
internal_weight=0 52.0738 24.4854 27.5884
internal_count=171 118 61 57
shrinkage=0.1


Tree=34
num_leaves=6
num_cat=0
split_feature=2 0 2 2 2
split_gain=10.7063 7.53887 0.0325279 0.335095 0.0129648
threshold=3.3220000000000005 0.027500000000000004 4.7645000000000008 5.5140000000000002 8.1275000000000013
decision_type=2 2 2 2 2
left_child=1 -1 -2 -4 -5
right_child=2 -3 3 4 -6
leaf_value=-0.011074895868220306 -0.054841007461596661 0.10769177524156476 -0.011620434065458277 -0.054101802513318864 -0.031344713917946153
leaf_weight=9.8090840131044406 8.4712055623531359 11.106856644153593 4.6385199725627926 7.5476596951484662 4.3752336353063583
leaf_count=31 39 23 21 36 21
internal_value=0 0.519421 -0.445588 -0.381112 -0.472306
internal_weight=0 20.9159 25.0326 16.5614 11.9229
internal_count=171 54 117 78 57
shrinkage=0.1


Tree=35
num_leaves=6
num_cat=0
split_feature=3 0 1 1 2
split_gain=2.63819 2.08181 1.77176 2.22202 0.559184
threshold=1.1870000000000001 0.0085000000000000023 0.16750000000000004 0.31750000000000006 4.7645000000000008
decision_type=2 2 2 2 2
left_child=-1 4 -3 -4 -2
right_child=1 2 3 -5 -6
leaf_value=-0.052029090623720159 0 0.078475488461683757 -0.023089368234734686 0.050193628632524627 -0.05135616856194658
leaf_weight=7.2949975728988639 3.4732794314622906 5.5721070021390942 8.1208314746618253 7.8674292862415305 4.40680231153965
leaf_count=47 20 22 29 29 24
internal_value=0 0.14358 0.30596 0.125283 -0.284899
internal_weight=0 29.4404 21.5604 15.9883 7.88008
internal_count=171 124 80 58 44
shrinkage=0.1


Tree=36
num_leaves=5
num_cat=0
split_feature=5 6 0 2
split_gain=9.12665 2.08394 1.40416 0.446304
threshold=5.5700000000000012 6.5130000000000008 0.015500000000000002 6.5465000000000009
decision_type=2 2 2 2
left_child=-1 2 -2 -3
right_child=1 3 -4 -5
leaf_value=-0.059997095137719683 -0.020304304410991115 0.0219366211773276 0.029010332991542539 0.051809836794987463
leaf_weight=18.333963215351105 13.59562334418297 9.8770665526390093 9.7265390157699567 16.565837740898132
leaf_count=63 33 20 21 34
internal_value=0 0.221666 0 0.412752
internal_weight=0 49.7651 23.3222 26.4429
internal_count=171 108 54 54
shrinkage=0.1


Tree=37
num_leaves=5
num_cat=0
split_feature=0 5 0 1
split_gain=8.92371 5.8634 3.99539 0.193167
threshold=0.024500000000000004 6.0085000000000006 0.0095000000000000015 0.08900000000000001
decision_type=2 2 2 2
left_child=1 3 -3 -1
right_child=-2 2 -4 -5
leaf_value=0.046174620960822997 -0.062539582126644275 0.02269659446957541 -0.050469748751123533 0.072885332564275082
leaf_weight=10.503301590681078 16.984311431646347 17.726916283369068 12.510805815458296 10.739432066678999
leaf_count=22 53 39 35 22
internal_value=0 0.206444 -0.0738003 0.606987
internal_weight=0 51.4805 30.2377 21.2427
internal_count=171 118 74 44
shrinkage=0.1


Tree=38
num_leaves=6
num_cat=0
split_feature=2 0 2 2 2
split_gain=9.62184 6.29495 0.0396163 0.326403 0.0221818
threshold=3.3220000000000005 0.027500000000000004 4.7645000000000008 5.5140000000000002 8.1275000000000013
decision_type=2 2 2 2 2
left_child=1 -1 -2 -4 -5
right_child=2 -3 3 4 -6
leaf_value=-0.0095140552003816076 -0.054313211237252204 0.099504762513634618 -0.010800184560511657 -0.053539910533397829 -0.029836051302456198
leaf_weight=9.6002399176359194 8.0797557532787341 11.128042757511137 4.5669179856777182 7.1690001636743528 4.1912842988967896
leaf_count=31 39 23 21 36 21
internal_value=0 0.489268 -0.436543 -0.370205 -0.463271
internal_weight=0 20.7283 24.007 15.9272 11.3603
internal_count=171 54 117 78 57
shrinkage=0.1


Tree=39
num_leaves=6
num_cat=0
split_feature=4 2 0 2 3
split_gain=2.4254 1.53091 1.71336 0.55119 0.332238
threshold=5.0870000000000006 7.0040000000000004 0.0065000000000000014 5.1000000000000005 1.1870000000000001
decision_type=2 2 2 2 2
left_child=4 2 -2 -4 -1
right_child=1 -3 3 -5 -6
leaf_value=-0.051386244992787322 -0.025100885155700012 -0.022507397912934698 0.023570685410423457 0.066135419102771639 -0.012689539353216621
leaf_weight=6.6470977663993818 3.6980526745319429 6.3240420222282401 6.7475669234991065 8.2747467458248121 4.741840273141861
leaf_count=46 20 33 22 27 23
internal_value=0 0.186004 0.331069 0.482344 -0.366346
internal_weight=0 25.0444 18.7204 15.0223 11.3889
internal_count=171 102 69 49 69
shrinkage=0.1


Tree=40
num_leaves=5
num_cat=0
split_feature=6 6 0 3
split_gain=8.20603 1.81746 1.4896 0.400699
threshold=2.8485 6.5130000000000008 0.015500000000000002 1.5625000000000002
decision_type=2 2 2 2
left_child=-1 2 -2 -3
right_child=1 3 -4 -5
leaf_value=-0.059019501022865607 -0.020488587977921663 0.022273493049028509 0.030609345574228265 0.050094452789416537
leaf_weight=17.243145272135735 13.819900393486025 11.394483953714373 9.4172730743885023 14.835138410329817
leaf_count=63 34 23 20 31
internal_value=0 0.207092 0 0.38647
internal_weight=0 49.4668 23.2372 26.2296
internal_count=171 108 54 54
shrinkage=0.1


Tree=41
num_leaves=6
num_cat=0
split_feature=0 3 1 3 0
split_gain=8.01235 5.2293 1.59017 2.9225 1.36502
threshold=0.024500000000000004 1.2995000000000003 0.049500000000000009 1.1505000000000003 0.0095000000000000015
decision_type=2 2 2 2 2
left_child=1 2 -1 -4 -3
right_child=-2 4 3 -5 -6
leaf_value=0.078837144594233036 -0.061338228523874751 0.0019324912665141837 0.06640440630428382 -0.0071074869987246478 -0.049645199873419588
leaf_weight=9.7732377648353594 16.048978552222252 11.437932431697847 10.184553712606432 10.761154174804686 8.5979137420654279
leaf_count=21 53 26 21 23 27
internal_value=0 0.193044 0.452129 0.284537 -0.199786
internal_weight=0 50.7548 30.7189 20.9457 20.0358
internal_count=171 118 65 44 53
shrinkage=0.1


Tree=42
num_leaves=6
num_cat=0
split_feature=2 0 2 2 2
split_gain=8.66061 5.30198 0.0477677 0.316979 0.0301822
threshold=3.3220000000000005 0.027500000000000004 4.7645000000000008 5.5140000000000002 8.1275000000000013
decision_type=2 2 2 2 2
left_child=1 -1 -2 -4 -5
right_child=2 -3 3 4 -6
leaf_value=-0.0079932940953381573 -0.053825516390956452 0.092755996937454566 -0.010001807735742441 -0.052958982759289466 -0.028378232914285529
leaf_weight=9.3980361521244067 7.7151091098785427 11.027055710554121 4.4997615069150916 6.7829643785953504 4.0212244093418121
leaf_count=31 39 23 21 36 21
internal_value=0 0.462862 -0.427512 -0.35901 -0.45401
internal_weight=0 20.4251 23.0191 15.304 10.8042
internal_count=171 54 117 78 57
shrinkage=0.1


Tree=43
num_leaves=6
num_cat=0
split_feature=3 0 1 1 2
split_gain=2.20349 1.71588 1.38355 1.99778 0.551926
threshold=1.1870000000000001 0.0085000000000000023 0.16750000000000004 0.31750000000000006 4.7645000000000008
decision_type=2 2 2 2 2
left_child=-1 4 -3 -4 -2
right_child=1 2 3 -5 -6
leaf_value=-0.050956271480138204 0.00024866168617681037 0.067795901963375774 -0.023200067731560983 0.045849368230551787 -0.050743732261848987
leaf_weight=6.376337692141532 3.3973517864942577 5.9712801724672344 8.086605906486513 8.1079330742359144 4.1531225889921188
leaf_count=47 20 22 29 29 24
internal_value=0 0.129378 0.271419 0.108978 -0.27095
internal_weight=0 29.7163 22.1658 16.1945 7.55047
internal_count=171 124 80 58 44
shrinkage=0.1


Tree=44
num_leaves=5
num_cat=0
split_feature=6 6 0 2
split_gain=7.40046 1.57088 1.26166 0.381801
threshold=2.8485 6.5130000000000008 0.015500000000000002 6.5465000000000009
decision_type=2 2 2 2
left_child=-1 2 -2 -3
right_child=1 3 -4 -5
leaf_value=-0.058139558887928593 -0.019089891706992403 0.018321917859105329 0.028021626859812389 0.046049866468049504
leaf_weight=16.214823052287102 13.581212878227236 9.8686520457267779 9.4717366397380811 16.147298097610474
leaf_count=63 34 20 20 34
internal_value=0 0.193876 0 0.361333
internal_weight=0 49.0689 23.0529 26.016
internal_count=171 108 54 54
shrinkage=0.1


Tree=45
num_leaves=6
num_cat=0
split_feature=0 3 1 3 0
split_gain=7.17478 4.57694 1.50891 2.61518 1.24892
threshold=0.024500000000000004 1.2995000000000003 0.049500000000000009 1.1505000000000003 0.0095000000000000015
decision_type=2 2 2 2 2
left_child=1 2 -1 -4 -3
right_child=-2 4 3 -5 -6
leaf_value=0.075708868774590654 -0.060207645827976698 0.0016043923932479683 0.06245884828574081 -0.0074178331781447658 -0.048279822614368195
leaf_weight=9.4959204792976397 15.114522904157637 11.439914286136629 10.013438761234285 10.716666370630263 8.244906932115553
leaf_count=21 53 26 21 23 27
internal_value=0 0.179994 0.424311 0.261318 -0.19062
internal_weight=0 49.9108 30.226 20.7301 19.6848
internal_count=171 118 65 44 53
shrinkage=0.1


Tree=46
num_leaves=6
num_cat=0
split_feature=2 0 2 6 1
split_gain=7.81804 4.5422 0.0540994 0.311063 0.0661781
threshold=3.3220000000000005 0.027500000000000004 4.7645000000000008 8.5925000000000029 0.17500000000000002
decision_type=2 2 2 2 2
left_child=1 -1 -2 4 -4
right_child=2 -3 3 -5 -6
leaf_value=-0.0066451496436168035 -0.053342072836015011 0.087401478782090092 -0.029219563323693562 -0.052693877324665551 -0.0068705430500434943
leaf_weight=9.2242422401905078 7.3356038779020336 10.819162070751188 4.2781403809785825 6.2374635189771643 4.2204442471265793
leaf_count=31 39 23 22 36 20
internal_value=0 0.439879 -0.418649 -0.348442 -0.196837
internal_weight=0 20.0434 22.0717 14.736 8.49858
internal_count=171 54 117 78 42
shrinkage=0.1


Tree=47
num_leaves=6
num_cat=0
split_feature=4 2 0 2 1
split_gain=2.0466 1.27798 1.33056 0.500997 0.341599
threshold=5.0870000000000006 7.0040000000000004 0.0065000000000000014 5.1000000000000005 0.13300000000000003
decision_type=2 2 2 2 2
left_child=4 2 -2 -4 -1
right_child=1 -3 3 -5 -6
leaf_value=-0.050754818321903698 -0.023014142246733052 -0.021227962478621618 0.019633241252038622 0.059189752174806244 -0.010558310441316658
leaf_weight=5.998180225491522 3.4887428581714692 6.1158866286277762 6.986554652452468 8.6446370333433133 4.5247979313135147
leaf_count=46 20 33 22 27 23
internal_value=0 0.17127 0.30006 0.426125 -0.349225
internal_weight=0 25.2358 19.1199 15.6312 10.523
internal_count=171 102 69 49 69
shrinkage=0.1


Tree=48
num_leaves=5
num_cat=0
split_feature=5 6 0 3
split_gain=6.72931 1.31871 0.938707 0.3714
threshold=5.5700000000000012 6.5130000000000008 0.015500000000000002 1.5625000000000002
decision_type=2 2 2 2
left_child=-1 2 -2 -3
right_child=1 3 -4 -5
leaf_value=-0.057385875766156058 -0.016715857876732521 0.018192898273763053 0.023863176948953783 0.044924032729857732
leaf_weight=15.276496723294256 13.028581559658052 11.360725700855257 9.7976035773754102 14.367240369319914
leaf_count=63 33 23 21 31
internal_value=0 0.182998 0.00323436 0.337374
internal_weight=0 48.5542 22.8262 25.728
internal_count=171 108 54 54
shrinkage=0.1


Tree=49
num_leaves=5
num_cat=0
split_feature=0 5 0 2
split_gain=6.44268 4.01482 2.9695 0.256582
threshold=0.024500000000000004 6.0085000000000006 0.0095000000000000015 2.8985000000000007
decision_type=2 2 2 2
left_child=1 3 -3 -1
right_child=-2 2 -4 -5
leaf_value=0.037421846164660953 -0.059212267503666288 0.018498084294776031 -0.046575069047415908 0.065832764889732664
leaf_weight=11.304904133081438 14.222798258066176 17.518252968788151 11.322193548083304 8.8229169845581037
leaf_count=24 53 39 35 20
internal_value=0 0.167922 -0.0684883 0.508927
internal_weight=0 48.9683 28.8404 20.1278
internal_count=171 118 74 44
shrinkage=0.1


Tree=50
num_leaves=6
num_cat=0
split_feature=2 0 2 4 1
split_gain=7.06243 3.93725 0.0625831 0.3129 0.0567436
threshold=3.3220000000000005 0.027500000000000004 4.7645000000000008 7.7625000000000011 0.18750000000000003
decision_type=2 2 2 2 2
left_child=1 -1 -2 -4 -5
right_child=2 -3 3 4 -6
leaf_value=-0.0054612130161197222 -0.052910753195246685 0.082919874405436189 -0.0078342054206953816 -0.025630876982997611 -0.0526285286803235
leaf_weight=9.07252384722233 6.9928537458181408 10.54899740219116 4.3213841319084159 3.879960894584654 5.962860956788063
leaf_count=31 39 23 21 23 34
internal_value=0 0.419073 -0.409661 -0.337183 -0.437044
internal_weight=0 19.6215 21.1571 14.1642 9.84282
internal_count=171 54 117 78 57
shrinkage=0.1


Tree=51
num_leaves=6
num_cat=0
split_feature=3 0 1 1 2
split_gain=1.88722 1.37455 1.07734 1.82466 0.57165
threshold=1.1870000000000001 0.0085000000000000023 0.16750000000000004 0.31750000000000006 4.7645000000000008
decision_type=2 2 2 2 2
left_child=-1 4 -3 -4 -2
right_child=1 2 3 -5 -6
leaf_value=-0.050073692467051414 0.0033798930566209702 0.058949321679579385 -0.023189536126712748 0.042548287711268444 -0.050142632852795722
leaf_weight=5.633929803967475 3.2154438942670849 6.3289035260677364 8.0442250221967715 8.2832116186618787 3.8983976319432259
leaf_count=47 20 22 29 29 24
internal_value=0 0.120346 0.242664 0.0966674 -0.251524
internal_weight=0 29.7702 22.6563 16.3274 7.11384
internal_count=171 124 80 58 44
shrinkage=0.1


Tree=52
num_leaves=5
num_cat=0
split_feature=6 5 0 3
split_gain=6.05317 1.19054 0.781215 0.682113
threshold=2.8485 12.222000000000001 0.015500000000000002 1.2995000000000003
decision_type=2 2 2 2
left_child=-1 2 3 -2
right_child=1 -3 -4 -5
leaf_value=-0.056600427169566585 -0.033518730035800269 0.037411999053235452 0.022383747170802583 0.0065401377433213781
leaf_weight=14.297899559140204 6.8542473018169465 17.92761704325676 13.567612111568449 9.8262218832969648
leaf_count=63 20 39 28 21
internal_value=0 0.17064 0.0450913 -0.0953034
internal_weight=0 48.1757 30.2481 16.6805
internal_count=171 108 69 41
shrinkage=0.1


Tree=53
num_leaves=6
num_cat=0
split_feature=0 3 1 3 0
split_gain=5.79976 3.62701 1.44644 2.25677 1.04266
threshold=0.024500000000000004 1.2995000000000003 0.049500000000000009 1.1505000000000003 0.0095000000000000015
decision_type=2 2 2 2 2
left_child=1 2 -1 -4 -3
right_child=-2 4 3 -5 -6
leaf_value=0.071492694873121515 -0.058286996219807541 0.00056718717288261472 0.056524128267049369 -0.0093356944804743325 -0.046000966393815283
leaf_weight=8.9535441696643847 13.370311394333838 11.469127833843233 9.6341009736061114 10.496523350477217 7.5925553739070883
leaf_count=21 53 26 21 23 27
internal_value=0 0.156905 0.379186 0.219376 -0.177475
internal_weight=0 48.1459 29.0842 20.1306 19.0617
internal_count=171 118 65 44 53
shrinkage=0.1


Tree=54
num_leaves=6
num_cat=0
split_feature=2 0 2 2 2
split_gain=6.38896 3.42026 0.0673223 0.305716 0.0720475
threshold=3.3220000000000005 0.027500000000000004 4.7645000000000008 5.5140000000000002 8.1275000000000013
decision_type=2 2 2 2 2
left_child=1 -1 -2 -4 -5
right_child=2 -3 3 4 -6
leaf_value=-0.0042598532483038853 -0.052430787474438412 0.079040712402924901 -0.0070710224438350691 -0.051753497214650425 -0.022918445891389069
leaf_weight=8.9201452732086199 6.635545656085017 10.203530699014662 4.2587260305881491 5.9530235975980741 3.4674155414104462
leaf_count=31 39 23 21 36 21
internal_value=0 0.400261 -0.400889 -0.327123 -0.428766
internal_weight=0 19.1237 20.3147 13.6792 9.42044
internal_count=171 54 117 78 57
shrinkage=0.1


Tree=55
num_leaves=6
num_cat=0
split_feature=3 0 6 5 2
split_gain=1.72885 1.21659 1.00426 1.10783 0.558545
threshold=1.1870000000000001 0.0085000000000000023 9.9195000000000011 8.4295000000000027 4.7645000000000008
decision_type=2 2 2 2 2
left_child=-1 4 3 -3 -2
right_child=1 2 -4 -5 -6
leaf_value=-0.049561642181325881 0.0039756036205987689 0.0089808843093788764 -0.014480649198262103 0.060370373350125683 -0.049635322640866834
leaf_weight=5.25654762238264 3.1817824319005039 9.4162088930606895 5.1051419526338568 8.3858184516429883 3.7168033644556999
leaf_count=47 20 30 27 23 24
internal_value=0 0.115612 0.228444 0.341457 -0.240847
internal_weight=0 29.8058 22.9072 17.802 6.89859
internal_count=171 124 80 53 44
shrinkage=0.1


Tree=56
num_leaves=5
num_cat=0
split_feature=6 3 0 3
split_gain=5.49411 1.0552 0.795657 0.681499
threshold=2.8485 1.5125000000000002 0.015500000000000002 1.3075000000000003
decision_type=2 2 2 2
left_child=-1 2 3 -2
right_child=1 -3 -4 -5
leaf_value=-0.05593542771735352 -0.029922359618569802 0.035800769293161491 0.02503438421499752 0.0077071165049840337
leaf_weight=13.412647962570189 7.9799687564373079 17.198089569807053 11.594413757324217 10.894511014223097
leaf_count=63 23 38 24 23
internal_value=0 0.160627 0.0443474 -0.0782497
internal_weight=0 47.667 30.4689 18.8745
internal_count=171 108 70 46
shrinkage=0.1


Tree=57
num_leaves=6
num_cat=0
split_feature=0 5 0 3 2
split_gain=5.21996 3.16401 2.50862 0.476044 0.29166
threshold=0.024500000000000004 6.0085000000000006 0.010500000000000001 1.3705000000000003 2.8985000000000007
decision_type=2 2 2 2 2
left_child=1 4 3 -3 -1
right_child=-2 2 -4 -5 -6
leaf_value=0.031858688603650306 -0.057454738454219861 0.027580326298798748 -0.050426152033194817 -0.0029731487916875329 0.061480466201667194
leaf_weight=10.904972642660143 12.551782503724096 10.484580904245382 8.7885400056838971 8.6777425110340101 8.3164228498935682
leaf_count=24 53 23 30 21 20
internal_value=0 0.146165 -0.065706 0.133398 0.45691
internal_weight=0 47.1723 27.9509 19.1623 19.2214
internal_count=171 118 74 44 44
shrinkage=0.1


Tree=58
num_leaves=6
num_cat=0
split_feature=2 0 2 6 1
split_gain=5.79154 2.99261 0.0748017 0.319412 0.0873706
threshold=3.3220000000000005 0.027500000000000004 4.7645000000000008 8.5925000000000029 0.17500000000000002
decision_type=2 2 2 2 2
left_child=1 -1 -2 4 -4
right_child=2 -3 3 -5 -6
leaf_value=-0.0030914113204014854 -0.052019964924222756 0.07579147925608351 -0.026690235673275189 -0.051170660622533365 -0.0022867193581361349
leaf_weight=8.775001063942911 6.3192170113325146 9.81498274207115 3.9624581411480886 5.3213761299848557 3.8920473456382751
leaf_count=31 39 23 22 36 20
internal_value=0 0.383877 -0.392035 -0.316231 -0.161964
internal_weight=0 18.59 19.4951 13.1759 7.85451
internal_count=171 54 117 78 42
shrinkage=0.1


Tree=59
num_leaves=6
num_cat=0
split_feature=6 6 1 6 1
split_gain=1.61102 1.32704 1.08356 1.72015 0.272604
threshold=3.1795000000000004 4.1290000000000004 0.31750000000000006 6.1555000000000009 0.13300000000000003
decision_type=2 2 2 2 2
left_child=4 -2 3 -3 -1
right_child=1 2 -4 -5 -6
leaf_value=-0.049447389656723774 0.063000939658877431 0.019019960508087682 0.032550503436992423 -0.053379675973786692 -0.011309199799777445
leaf_weight=4.8084567263722402 4.6065143123269108 6.8337153643369692 8.0532177388668043 5.7923287078738213 4.5851869061589241
leaf_count=44 21 21 28 32 25
internal_value=0 0.155135 0.0395411 -0.137289 -0.324977
internal_weight=0 25.2858 20.6793 12.626 9.39364
internal_count=171 102 81 53 69
shrinkage=0.1


Tree=60
num_leaves=4
num_cat=0
split_feature=2 5 5
split_gain=4.98877 1.0064 0.891418
threshold=3.8485000000000005 12.222000000000001 8.4295000000000027
decision_type=2 2 2
left_child=-1 2 -2
right_child=1 -3 -4
leaf_value=-0.051464714127090118 0.021801421359681605 0.03543524143173752 -0.013062723754232123
leaf_weight=14.106227800250052 14.523081064224245 16.946217596530914 14.137379705905913
leaf_count=66 37 38 30
internal_value=0 0.161828 0.042861
internal_weight=0 45.6067 28.6605
internal_count=171 105 67
shrinkage=0.1


Tree=61
num_leaves=5
num_cat=0
split_feature=0 1 3 0
split_gain=4.69391 2.79869 3.27093 1.05304
threshold=0.024500000000000004 0.042500000000000003 1.1870000000000001 0.010500000000000001
decision_type=2 2 2 2
left_child=1 -1 -3 -4
right_child=-2 2 3 -5
leaf_value=0.064407866171315636 -0.056683116977900176 0.047021646526843819 -0 -0.040052219055531399
leaf_weight=8.589610815048216 11.754147812724112 11.021586090326307 15.350109636783602 11.336697354912756
leaf_count=21 53 25 36 36
internal_value=0 0.135635 0.0143914 -0.172241
internal_weight=0 46.298 37.7084 26.6868
internal_count=171 118 97 72
shrinkage=0.1


Tree=62
num_leaves=6
num_cat=0
split_feature=2 0 2 6 0
split_gain=5.25426 2.65094 0.078995 0.314715 0.0916209
threshold=3.3220000000000005 0.027500000000000004 4.7645000000000008 8.5925000000000029 0.016500000000000004
decision_type=2 2 2 2 2
left_child=1 -1 -2 4 -4
right_child=2 -3 3 -5 -6
leaf_value=-0.0021358044696040079 -0.051557858375568325 0.07302530906486826 -0.0013746279818498415 -0.050655285042912203 -0.026196670622403578
leaf_weight=8.657089978456499 5.9851258322596577 9.414606571197508 3.8739158958196622 5.0311903432011604 3.8344525843858719
leaf_count=31 39 23 22 36 20
internal_value=0 0.368435 -0.383187 -0.306252 -0.153368
internal_weight=0 18.0717 18.7247 12.7396 7.70837
internal_count=171 54 117 78 42
shrinkage=0.1


Tree=63
num_leaves=6
num_cat=0
split_feature=3 0 1 1 2
split_gain=1.4845 1.01985 0.809153 1.53527 0.551708
threshold=1.1870000000000001 0.0085000000000000023 0.16750000000000004 0.31750000000000006 4.7645000000000008
decision_type=2 2 2 2 2
left_child=-1 4 -3 -4 -2
right_child=1 2 3 -5 -6
leaf_value=-0.048672122438908713 0.0054439882983603003 0.050241474132238728 -0.022589137726717917 0.037537691146756348 -0.049008068420604435
leaf_weight=4.626343458890914 3.0979737713933018 6.670104548335078 7.8785301297903088 8.5649213194847089 3.4902549088001251
leaf_count=47 20 22 29 29 24
internal_value=0 0.109958 0.210904 0.082031 -0.22524
internal_weight=0 29.7018 23.1136 16.4435 6.58823
internal_count=171 124 80 58 44
shrinkage=0.1


Tree=64
num_leaves=5
num_cat=0
split_feature=6 3 3 0
split_gain=4.55246 0.84861 0.660621 0.841812
threshold=2.8485 1.5125000000000002 1.3610000000000002 0.0095000000000000015
decision_type=2 2 2 2
left_child=-1 2 3 -2
right_child=1 -3 -4 -5
leaf_value=-0.054775693859831678 -0.0085280616490427535 0.032218955353720977 -0.012781435180044338 0.035213401643545458
leaf_weight=11.838827386498449 7.0485153496265474 16.63466277718544 12.978504985570906 10.089240431785582
leaf_count=63 21 38 27 22
internal_value=0 0.141522 0.0369647 0.167555
internal_weight=0 46.7509 30.1163 17.1378
internal_count=171 108 70 43
shrinkage=0.1


Tree=65
num_leaves=5
num_cat=0
split_feature=0 1 5 0
split_gain=4.27149 2.58844 2.93132 0.936521
threshold=0.024500000000000004 0.042500000000000003 6.0085000000000006 0.010500000000000001
decision_type=2 2 2 2
left_child=1 -1 -3 -4
right_child=-2 2 3 -5
leaf_value=0.062409371928976221 -0.055977168696380586 0.035627074875421216 -0.0048557561483891405 -0.048042144986976079
leaf_weight=8.3600163757801038 11.044266834855078 14.78882175683975 14.161235526204111 8.1881706863641721
leaf_count=21 53 34 33 30
internal_value=0 0.128126 0.0110577 -0.214072
internal_weight=0 45.4982 37.1382 22.3494
internal_count=171 118 97 63
shrinkage=0.1


Tree=66
num_leaves=6
num_cat=0
split_feature=2 0 2 1 0
split_gain=4.78578 2.32698 0.0831832 0.313445 0.667748
threshold=3.3220000000000005 0.027500000000000004 4.7645000000000008 0.25150000000000006 0.0075000000000000006
decision_type=2 2 2 2 2
left_child=1 -1 -2 4 -4
right_child=2 -3 3 -5 -6
leaf_value=-0.00097465563250921216 -0.051144151426291196 0.070452328646067749 -0.048647025888227079 -0.05077989125824936 0.0083295999463012561
leaf_weight=8.5186525881290454 5.68924302607775 8.9780860841274244 3.2152127549052221 4.6290199756622314 4.496911495923996
leaf_count=31 39 23 21 31 26
internal_value=0 0.354935 -0.374887 -0.29681 -0.147895
internal_weight=0 17.4967 18.0304 12.3411 7.71212
internal_count=171 54 117 78 47
shrinkage=0.1


Tree=67
num_leaves=6
num_cat=0
split_feature=4 2 0 2 1
split_gain=1.3686 0.87275 0.784771 0.496889 0.363194
threshold=5.0870000000000006 7.0040000000000004 0.0065000000000000014 5.1000000000000005 0.13300000000000003
decision_type=2 2 2 2 2
left_child=4 2 -2 -4 -1
right_child=1 -3 3 -5 -6
leaf_value=-0.049427731480219783 -0.018607236134481734 -0.018567638509100794 0.01197535690154403 0.049313016048039053 -0.00533562438495704
leaf_weight=4.7265376001596433 3.0965857207775178 5.6800284460186949 7.4282439425587681 9.1144780591130239 4.0074684396386147
leaf_count=46 20 33 22 27 23
internal_value=0 0.14505 0.24665 0.334877 -0.308884
internal_weight=0 25.3193 19.6393 16.5427 8.73401
internal_count=171 102 69 49 69
shrinkage=0.1


Tree=68
num_leaves=5
num_cat=0
split_feature=6 3 3 0
split_gain=4.12507 0.738958 0.609863 0.706946
threshold=2.8485 1.5125000000000002 1.3610000000000002 0.0095000000000000015
decision_type=2 2 2 2
left_child=-1 2 3 -2
right_child=1 -3 -4 -5
leaf_value=-0.054195082342789337 -0.0072894900397675712 0.030296151596285809 -0.01234458107982018 0.03285868039981777
leaf_weight=11.06541272997856 6.926017224788672 16.345579355955124 12.947405904531477 10.128853499889372
leaf_count=63 21 38 27 22
internal_value=0 0.132426 0.0348147 0.160794
internal_weight=0 46.3479 30.0023 17.0549
internal_count=171 108 70 43
shrinkage=0.1


Tree=69
num_leaves=5
num_cat=0
split_feature=0 1 3 0
split_gain=3.85755 2.37007 2.61824 0.917566
threshold=0.024500000000000004 0.042500000000000003 1.1870000000000001 0.010500000000000001
decision_type=2 2 2 2
left_child=1 -1 -3 -4
right_child=-2 2 3 -5
leaf_value=0.060171355628373537 -0.055329086144590714 0.042515143438455472 -0 -0.038291366933589879
leaf_weight=8.0846075713634473 10.350979834794996 10.511286705732344 15.215929463505747 10.719897449016569
leaf_count=21 53 25 36 36
internal_value=0 0.118757 0.00620048 -0.16172
internal_weight=0 44.5317 36.4471 25.9358
internal_count=171 118 97 72
shrinkage=0.1


Tree=70
num_leaves=6
num_cat=0
split_feature=2 0 2 6 1
split_gain=4.36574 2.06339 0.0881142 0.314752 0.0967908
threshold=3.3220000000000005 0.027500000000000004 4.7645000000000008 8.5925000000000029 0.17500000000000002
decision_type=2 2 2 2 2
left_child=1 -1 -2 4 -4
right_child=2 -3 3 -5 -6
leaf_value=-0 -0.050725382962080012 0.06831578955376244 -0.024410174471351895 -0.04975243274420043 -0
leaf_weight=8.3938228040933627 5.3989238068461445 8.5517573952674848 3.7045699432492238 4.5527601987123489 3.6814959347248077
leaf_count=31 39 23 22 36 20
internal_value=0 0.343334 -0.366063 -0.28667 -0.133828
internal_weight=0 16.9456 17.3377 11.9388 7.38607
internal_count=171 54 117 78 42
shrinkage=0.1


Tree=71
num_leaves=6
num_cat=0
split_feature=3 0 1 1 2
split_gain=1.2554 0.807211 0.698217 1.3991 0.568846
threshold=1.1870000000000001 0.0085000000000000023 0.16750000000000004 0.31750000000000006 4.7645000000000008
decision_type=2 2 2 2 2
left_child=-1 4 -3 -4 -2
right_child=1 2 3 -5 -6
leaf_value=-0.047758104479740611 0.0084129795130070666 0.045486955894863207 -0.022734558803398138 0.034521565694479527 -0.04846777500003048
leaf_weight=4.057753473520278 2.9494414776563671 6.8657950609922436 7.8462445661425617 8.7079174369573575 3.2898741737008095
leaf_count=47 20 22 29 29 24
internal_value=0 0.101589 0.188819 0.0683934 -0.206001
internal_weight=0 29.6593 23.42 16.5542 6.23932
internal_count=171 124 80 58 44
shrinkage=0.1


Tree=72
num_leaves=4
num_cat=0
split_feature=5 2 5
split_gain=3.77026 0.680771 0.564412
threshold=5.5700000000000012 7.0040000000000004 8.4295000000000027
decision_type=2 2 2
left_child=-1 2 -2
right_child=1 -3 -4
leaf_value=-0.053706581907945986 0.0178353309471487 0.030810813082726679 -0.008407820542438358
leaf_weight=10.389591157436369 15.422724828124048 13.975630313158034 16.538045197725296
leaf_count=63 39 33 36
internal_value=0 0.124559 0.0397708
internal_weight=0 45.9364 31.9608
internal_count=171 108 75
shrinkage=0.1


Tree=73
num_leaves=5
num_cat=0
split_feature=0 1 3 0
split_gain=3.48907 2.18517 2.31539 0.829
threshold=0.024500000000000004 0.042500000000000003 1.1870000000000001 0.010500000000000001
decision_type=2 2 2 2
left_child=1 -1 -3 -4
right_child=-2 2 3 -5
leaf_value=0.05818908008997379 -0.054694705037953352 0.040239457889174608 -0 -0.03695025314216744
leaf_weight=7.8306839615106574 9.6913818046450597 10.227106839418409 15.181615814566614 10.465313851833342
leaf_count=21 53 25 36 36
internal_value=0 0.110298 0.00193032 -0.15577
internal_weight=0 43.7047 35.874 25.6469
internal_count=171 118 97 72
shrinkage=0.1


Tree=74
num_leaves=6
num_cat=0
split_feature=2 0 0 1 6
split_gain=3.99173 1.83457 0.0939454 0.588505 0.267893
threshold=3.3220000000000005 0.027500000000000004 0.022500000000000003 0.17500000000000002 3.5610000000000004
decision_type=2 2 2 2 2
left_child=1 -1 3 4 -2
right_child=2 -3 -4 -5 -6
leaf_value=-0 -0.0059105299946268543 0.066454420975081779 -0.051072427293772149 0.0069396167089242761 -0.051444716706051122
leaf_weight=8.2758758962154406 2.3195674940943736 8.1034414470195753 4.8343932107090941 3.0403184443712226 6.5177980586886406
leaf_count=31 20 23 32 20 45
internal_value=0 0.33245 -0.357803 -0.279855 -0.40995
internal_weight=0 16.3793 16.7121 11.8777 8.83737
internal_count=171 54 117 85 65
shrinkage=0.1


Tree=75
num_leaves=6
num_cat=0
split_feature=4 6 1 6 1
split_gain=1.16295 0.794045 0.886161 1.46995 0.366399
threshold=5.0870000000000006 4.1290000000000004 0.31750000000000006 6.1555000000000009 0.13300000000000003
decision_type=2 2 2 2 2
left_child=4 -2 3 -3 -1
right_child=1 2 -4 -5 -6
leaf_value=-0.048919606159824283 0.04805745393334724 0.01628692513450904 0.029521938029491115 -0.052677703342766627 -0.0034573577416960131
leaf_weight=4.2921894341707212 5.1609762385487583 6.9140293598175067 8.1027740985155088 5.1186121478676796 3.8316639885306358
leaf_count=46 23 21 27 31 23
internal_value=0 0.136663 0.0397373 -0.126143 -0.292767
internal_weight=0 25.2964 20.1354 12.0326 8.12385
internal_count=171 102 79 52 69
shrinkage=0.1


Tree=76
num_leaves=5
num_cat=0
split_feature=6 3 3 0
split_gain=3.44789 0.618962 0.597555 0.530206
threshold=2.8485 1.5125000000000002 1.3610000000000002 0.0095000000000000015
decision_type=2 2 2 2
left_child=-1 2 3 -2
right_child=1 -3 -4 -5
leaf_value=-0.053270402488604221 -0.0051388250082741952 0.027570036092527134 -0.012941331011975865 0.029756836511855185
leaf_weight=9.7483188658952695 6.7149242013692918 15.868959218263624 12.887866199016569 10.107309639453886
leaf_count=63 21 38 27 22
internal_value=0 0.116828 0.0273499 0.153434
internal_weight=0 45.5791 29.7101 16.8222
internal_count=171 108 70 43
shrinkage=0.1


Tree=77
num_leaves=6
num_cat=0
split_feature=0 1 3 0 2
split_gain=3.18928 2.03953 2.08809 0.55462 0.452739
threshold=0.024500000000000004 0.042500000000000003 1.1505000000000003 0.010500000000000001 5.3490000000000011
decision_type=2 2 2 2 2
left_child=1 -1 -3 -4 -5
right_child=-2 2 3 4 -6
leaf_value=0.056634932316543429 -0.054146920657187451 0.043425820367370631 -0 -0.011842098560655413 -0.054487970161859592
leaf_weight=7.6166288554668418 9.0954195931553823 8.3093303143978101 15.143306136131288 7.4396981000900251 4.4603421539068222
leaf_count=21 53 21 36 20 20
internal_value=0 0.104083 0 -0.133206 -0.292894
internal_weight=0 42.9693 35.3527 27.0433 11.9
internal_count=171 118 97 76 40
shrinkage=0.1


Tree=78
num_leaves=6
num_cat=0
split_feature=2 0 2 1 0
split_gain=3.63827 1.63514 0.10107 0.333616 0.644979
threshold=3.3220000000000005 0.027500000000000004 4.7645000000000008 0.25150000000000006 0.0075000000000000006
decision_type=2 2 2 2 2
left_child=1 -1 -2 4 -4
right_child=2 -3 3 -5 -6
leaf_value=0 -0.050001956042769205 0.064662336329133582 -0.04725811544082275 -0.049563012035381493 0.011541983896510354
leaf_weight=8.1737814396619815 4.9289802834391621 7.6739756166934958 2.8232971206307393 4.0719644725322723 4.2859159633517265
leaf_count=31 39 23 21 31 26
internal_value=0 0.321346 -0.34904 -0.26608 -0.110954
internal_weight=0 15.8478 16.1102 11.1812 7.10921
internal_count=171 54 117 78 47
shrinkage=0.1


Tree=79
num_leaves=6
num_cat=0
split_feature=2 0 2 2 2
split_gain=1.07675 0.636176 0.575457 0.555757 1.12732
threshold=2.7815000000000007 0.0085000000000000023 4.7645000000000008 7.0040000000000004 5.1000000000000005
decision_type=2 2 2 2 2
left_child=-1 2 -2 4 -3
right_child=1 3 -4 -5 -6
leaf_value=-0.047616789609653626 0.010832482758826952 0.00098791851471152054 -0.047894745739128858 -0.011970674837104171 0.050622708810083711
leaf_weight=3.5099637620151034 2.8325557336211231 10.24920061603189 3.0916931480169296 4.7448356524109832 8.7496615499258024
leaf_count=42 20 36 24 26 23
internal_value=0 0.0935389 -0.187459 0.168807 0.246566
internal_weight=0 29.6679 5.92425 23.7437 18.9989
internal_count=171 129 44 85 59
shrinkage=0.1


Tree=80
num_leaves=5
num_cat=0
split_feature=5 6 3 6
split_gain=3.15995 0.567151 0.270434 0.838572
threshold=5.5700000000000012 4.1290000000000004 1.667 8.3765000000000018
decision_type=2 2 2 2
left_child=-1 -2 3 -3
right_child=1 2 -4 -5
leaf_value=-0.052825149424472334 -0.0094409901920294564 0.025274487648195416 0.034195362177902325 -0.0099191899682033128
leaf_weight=9.1470066308975202 9.8218674361705762 17.275279819965366 7.648876190185546 10.409959673881529
leaf_count=63 28 37 20 23
internal_value=0 0.110287 0.170212 0.117064
internal_weight=0 45.156 35.3341 27.6852
internal_count=171 108 80 60
shrinkage=0.1


Tree=81
num_leaves=6
num_cat=0
split_feature=0 1 3 0 2
split_gain=2.89368 1.88165 1.87754 0.506748 0.417635
threshold=0.024500000000000004 0.042500000000000003 1.1505000000000003 0.010500000000000001 5.3490000000000011
decision_type=2 2 2 2 2
left_child=1 -1 -3 -4 -5
right_child=-2 2 3 4 -6
leaf_value=0.05480819368089003 -0.0536197778775954 0.041465077078575406 -0.00020547373442780618 -0.011816123177309821 -0.053623148497101626
leaf_weight=7.3660265654325476 8.521738372743128 8.0679751038551313 15.114409476518633 7.3856279253959638 4.231982097029686
leaf_count=21 53 21 36 20 20
internal_value=0 0.0960855 -0 -0.130119 -0.285413
internal_weight=0 42.166 34.8 26.732 11.6176
internal_count=171 118 97 76 40
shrinkage=0.1


Tree=82
num_leaves=6
num_cat=0
split_feature=2 0 2 2 2
split_gain=3.31999 1.44977 0.105315 0.332295 0.164314
threshold=3.3220000000000005 0.027500000000000004 4.7645000000000008 5.5140000000000002 8.1275000000000013
decision_type=2 2 2 2 2
left_child=1 -1 -2 -4 -5
right_child=2 -3 3 4 -6
leaf_value=0.00050319053083491187 -0.049618125449737788 0.063030551087127934 -0 -0.04971043767526992 -0.011035082100687734
leaf_weight=8.0647360384464282 4.6856221109628668 7.2306630313396445 3.6403983980417234 4.6095357909798622 2.5955636501312256
leaf_count=31 39 23 21 36 21
internal_value=0 0.311394 -0.34046 -0.256363 -0.378028
internal_weight=0 15.2954 15.5311 10.8455 7.2051
internal_count=171 54 117 78 57
shrinkage=0.1


Tree=83
num_leaves=6
num_cat=0
split_feature=6 6 3 5 1
split_gain=1.00371 1.13229 0.916814 1.15103 0.256927
threshold=3.1795000000000004 4.1290000000000004 1.3795000000000002 12.222000000000001 0.13300000000000003
decision_type=2 2 2 2 2
left_child=4 -2 -3 -4 -1
right_child=1 2 3 -5 -6
leaf_value=-0.047624150888264133 0.055814005294352181 -0.025706837937051849 0.047090807572332312 -0.010267219789671711 -0.0072682803220949534
leaf_weight=3.536936502903699 4.7548969686031368 7.2406321913003948 6.6182441711425763 6.6144887804985046 4.0972002595663071
leaf_count=44 21 24 20 37 25
internal_value=0 0.128357 0.0192691 0.179495 -0.279803
internal_weight=0 25.2283 20.4734 13.2327 7.63414
internal_count=171 102 81 57 69
shrinkage=0.1


Tree=84
num_leaves=5
num_cat=0
split_feature=6 3 3 0
split_gain=2.89989 0.494397 0.585403 0.394619
threshold=2.8485 1.5125000000000002 1.3610000000000002 0.0095000000000000015
decision_type=2 2 2 2
left_child=-1 2 3 -2
right_child=1 -3 -4 -5
leaf_value=-0.052434630370166858 -0.0029064293578696114 0.024855860793962362 -0.01314438882090811 0.027270443262563546
leaf_weight=8.5913657769560796 6.4817154705524507 15.353693187236784 12.860872954130171 10.086512148380278
leaf_count=63 21 38 27 22
internal_value=0 0.1036 0.0234299 0.149746
internal_weight=0 44.7828 29.4291 16.5682
internal_count=171 108 70 43
shrinkage=0.1


Tree=85
num_leaves=6
num_cat=0
split_feature=0 1 3 0 2
split_gain=2.64863 1.75486 1.68352 0.48821 0.386572
threshold=0.024500000000000004 0.042500000000000003 1.1505000000000003 0.010500000000000001 5.3490000000000011
decision_type=2 2 2 2 2
left_child=1 -1 -3 -4 -5
right_child=-2 2 3 4 -6
leaf_value=0.053423507702003152 -0.053150831947831927 0.039627924065716705 -4.6452015601784237e-05 -0.011951377598260473 -0.052957414743121746
leaf_weight=7.1297851353883734 8.0005892589688283 7.8340312242507926 15.068988785147669 7.3381586670875532 4.0400710254907608
leaf_count=21 53 21 36 20 20
internal_value=0 0.0900268 -0.00202193 -0.125846 -0.280384
internal_weight=0 41.411 34.2812 26.4472 11.3782
internal_count=171 118 97 76 40
shrinkage=0.1


Tree=86
num_leaves=6
num_cat=0
split_feature=5 2 0 1 6
split_gain=3.07941 0.559112 0.112335 0.560037 0.307478
threshold=3.1105000000000005 3.3220000000000005 0.022500000000000003 0.17500000000000002 3.5610000000000004
decision_type=2 2 2 2 2
left_child=-1 -2 3 4 -3
right_child=1 2 -4 -5 -6
leaf_value=0.045667590664431268 0.0021684591824043991 -0.00045859414910488127 -0.049944976592564 0.009373434447301458 -0.050495709136659066
leaf_weight=9.2198595702648181 5.5646518170833614 2.0705202147364599 4.2583533599972716 2.9224787876009941 5.7512570954859257
leaf_count=33 21 20 32 20 45
internal_value=0 -0.232317 -0.332152 -0.248793 -0.388385
internal_weight=0 20.5673 15.0026 10.7443 7.82178
internal_count=171 138 117 85 65
shrinkage=0.1


Tree=87
num_leaves=5
num_cat=0
split_feature=6 6 1 1
split_gain=0.926554 0.998855 2.01149 0.650167
threshold=3.6465000000000005 6.1555000000000009 0.31750000000000006 0.13300000000000003
decision_type=2 2 2 2
left_child=3 -2 -3 -1
right_child=1 2 -4 -5
leaf_value=-0.049142303727029386 0.035513630329633193 -0.052873992513086422 0.027740284352355978 0.0011764607701188669
leaf_weight=4.568045571446417 11.066826865077021 5.0701523348689062 7.2083530426025391 4.7425029799342155
leaf_count=54 33 32 25 27
internal_value=0 0.138873 -0.0506024 -0.229743
internal_weight=0 23.3453 12.2785 9.31055
internal_count=171 90 57 81
shrinkage=0.1


Tree=88
num_leaves=5
num_cat=0
split_feature=2 6 6 1
split_gain=2.68654 0.592132 0.455692 0.205544
threshold=3.8485000000000005 4.1290000000000004 8.3765000000000018 0.25150000000000006
decision_type=2 2 2 2
left_child=-1 -2 -3 -4
right_child=1 2 3 -5
leaf_value=-0.047173796310287099 -0.010015570628789355 0.029211736762479085 0.015880793809302053 -0.0054922665741792363
leaf_weight=9.6159830763936025 9.7918940782546979 16.317893803119659 8.5378622412681597 8.2136160135269147
leaf_count=66 29 35 20 21
internal_value=0 0.107985 0.172853 0.0487004
internal_weight=0 42.8613 33.0694 16.7515
internal_count=171 105 76 41
shrinkage=0.1


Tree=89
num_leaves=6
num_cat=0
split_feature=0 1 3 0 2
split_gain=2.43528 1.61775 1.55967 0.442459 0.368579
threshold=0.024500000000000004 0.042500000000000003 1.1505000000000003 0.010500000000000001 5.3490000000000011
decision_type=2 2 2 2 2
left_child=1 -1 -3 -4 -5
right_child=-2 2 3 4 -6
leaf_value=0.051875080346561603 -0.052709603048093571 0.038420359035665916 -0.00036316094836615407 -0.01159714236998525 -0.052299008728277065
leaf_weight=6.8953473418951026 7.5340515300631514 7.6657210290431967 15.038824975490572 7.2890881001949293 3.8551020920276642
leaf_count=21 53 21 36 20 20
internal_value=0 0.0844595 -0.00360077 -0.122982 -0.272324
internal_weight=0 40.7441 33.8487 26.183 11.1442
internal_count=171 118 97 76 40
shrinkage=0.1


Tree=90
num_leaves=6
num_cat=0
split_feature=5 3 4 0 2
split_gain=2.77221 0.562779 1.36482 0.399819 0.209233
threshold=3.1105000000000005 1.2330000000000003 7.0460000000000003 0.010500000000000001 8.1275000000000013
decision_type=2 2 2 2 2
left_child=-1 -2 3 -3 -4
right_child=1 2 4 -5 -6
leaf_value=0.043859751259318389 -0.051933918105175406 -0.0092057814792042125 -0.050500913403915507 0.037024041697282697 -0.0090585227044817796
leaf_weight=8.9878249764442462 4.8546504117548492 2.5097291171550742 5.6438615769147855 4.5266607403755188 2.483965776860714
leaf_count=33 29 23 45 20 21
internal_value=0 -0.223497 -0.116751 0.193543 -0.395581
internal_weight=0 20.0189 15.1642 7.03639 8.12783
internal_count=171 138 109 43 66
shrinkage=0.1


Tree=91
num_leaves=5
num_cat=0
split_feature=2 1 6 6
split_gain=0.862569 0.535836 1.80939 0.642
threshold=2.7815000000000007 0.31750000000000006 6.1555000000000009 3.6465000000000005
decision_type=2 2 2 2
left_child=-1 2 3 -2
right_child=1 -3 -4 -5
leaf_value=-0.046291687922775611 -0.0077169750669739828 0.028706305371495152 -0.052466445104485129 0.032385292134063777
leaf_weight=2.9457738623023024 6.0867551900446477 8.9530467689037305 4.8571112602949134 9.5431548207998258
leaf_count=42 39 29 32 29
internal_value=0 0.0858438 -0 0.162364
internal_weight=0 29.4401 20.487 15.6299
internal_count=171 129 100 68
shrinkage=0.1


Tree=92
num_leaves=5
num_cat=0
split_feature=6 3 3 3
split_gain=2.48033 0.410602 0.614822 0.375286
threshold=2.8485 1.5125000000000002 1.3610000000000002 1.2855000000000001
decision_type=2 2 2 2
left_child=-1 2 3 -2
right_child=1 -3 -4 -5
leaf_value=-0.051728338692954637 -0 0.022659445421233111 -0.013984439491547491 0.028997188532743946
leaf_weight=7.655516803264617 7.6462468653917375 14.958219051361082 12.801645785570143 8.6777461767196638
leaf_count=63 23 38 27 20
internal_value=0 0.0924299 0.0190408 0.149879
internal_weight=0 44.0839 29.1256 16.324
internal_count=171 108 70 43
shrinkage=0.1


Tree=93
num_leaves=6
num_cat=0
split_feature=0 1 3 1 1
split_gain=2.25371 1.49803 1.42679 0.446796 0.654983
threshold=0.024500000000000004 0.042500000000000003 1.1505000000000003 0.099000000000000019 0.17500000000000002
decision_type=2 2 2 2 2
left_child=1 -1 -3 -4 -5
right_child=-2 2 3 4 -6
leaf_value=0.050595560240802119 -0.052307178052271745 0.037145572999533243 -0.024965552331542021 0.016712102149945448 -0.030130370823481963
leaf_weight=6.6564534455537787 7.11450121551752 7.4783060848712912 12.867801338434221 8.7959880232810956 4.2503974735736838
leaf_count=21 53 21 29 25 22
internal_value=0 0.0800334 -0.00439981 -0.118708 0.00471808
internal_weight=0 40.0489 33.3925 25.9142 13.0464
internal_count=171 118 97 76 47
shrinkage=0.1


Tree=94
num_leaves=6
num_cat=0
split_feature=2 0 2 6 0
split_gain=2.5599 1.15553 0.132986 0.384255 0.136319
threshold=3.3220000000000005 0.027500000000000004 4.7645000000000008 8.5925000000000029 0.016500000000000004
decision_type=2 2 2 2 2
left_child=1 -1 -2 4 -4
right_child=2 -3 3 -5 -6
leaf_value=0.0012847465123413133 -0.048864734934670917 0.059877284112036945 0.0076126347041467549 -0.047815986192291771 -0.019871711934456117
leaf_weight=7.9150768071413058 4.2315232977271071 6.1775315999984741 3.0322999693453294 3.6285967081785202 3.2097935676574707
leaf_count=31 39 23 22 36 20
internal_value=0 0.281471 -0.31657 -0.224632 -0.0514617
internal_weight=0 14.0926 14.1022 9.87069 6.24209
internal_count=171 54 117 78 42
shrinkage=0.1


Tree=95
num_leaves=6
num_cat=0
split_feature=6 6 3 5 1
split_gain=0.793303 0.974189 0.886641 0.942935 0.226238
threshold=3.1795000000000004 4.1290000000000004 1.3795000000000002 12.222000000000001 0.13300000000000003
decision_type=2 2 2 2 2
left_child=4 -2 -3 -4 -1
right_child=1 2 3 -5 -6
leaf_value=-0.046454203752402556 0.050894645734261279 -0.025952869255297484 0.043043618123675319 -0.0089586212118640523 -0.0065629418656092901
leaf_weight=3.0003114417195311 4.862675458192828 7.2002046704292324 6.716511130332945 6.4129653722047806 3.9786705300211906
leaf_count=44 21 24 20 37 25
internal_value=0 0.115812 0.0128653 0.171401 -0.259218
internal_weight=0 25.1924 20.3297 13.1295 6.97898
internal_count=171 102 81 57 69
shrinkage=0.1


Tree=96
num_leaves=6
num_cat=0
split_feature=5 3 2 0 1
split_gain=2.27438 0.368393 0.473911 0.58925 1.1734
threshold=5.5700000000000012 1.667 4.408500000000001 0.019500000000000003 0.10250000000000001
decision_type=2 2 2 2 2
left_child=-1 2 -2 4 -4
right_child=1 -3 3 -5 -6
leaf_value=-0.051355215507787988 0.026341123273571132 0.02941018131120602 0.0098270733186797271 0.016608256577664984 -0.039921190210564124
leaf_weight=7.1930970028042784 7.4823260009288779 7.0692964494228354 9.9814564734697395 10.837638854980467 8.3645152896642667
leaf_count=63 20 20 25 23 20
internal_value=0 0.0859485 0.0417256 -0.0131147 -0.125015
internal_weight=0 43.7352 36.6659 29.1836 18.346
internal_count=171 108 88 68 45
shrinkage=0.1


Tree=97
num_leaves=6
num_cat=0
split_feature=0 1 3 0 2
split_gain=2.07344 1.40786 1.27359 0.463032 0.329574
threshold=0.024500000000000004 0.042500000000000003 1.1505000000000003 0.010500000000000001 5.3490000000000011
decision_type=2 2 2 2 2
left_child=1 -1 -3 -4 -5
right_child=-2 2 3 4 -6
leaf_value=0.04947495432377759 -0.051891375185544569 0.035464437271704195 0 -0.012014558980104272 -0.051635303714489079
leaf_weight=6.4663678407669059 6.6823939085006705 7.25863492488861 14.927237391471865 7.1584800034761411 3.6377234309911728
leaf_count=21 53 21 36 20 20
internal_value=0 0.0753723 -0.00632238 -0.113988 -0.269703
internal_weight=0 39.4484 32.9821 25.7234 10.7962
internal_count=171 118 97 76 40
shrinkage=0.1


Tree=98
num_leaves=6
num_cat=0
split_feature=5 3 4 0 2
split_gain=2.35561 0.538462 1.24417 0.313675 0.22423
threshold=3.1105000000000005 1.2330000000000003 7.0460000000000003 0.010500000000000001 8.1275000000000013
decision_type=2 2 2 2 2
left_child=-1 -2 3 -3 -4
right_child=1 2 4 -5 -6
leaf_value=0.04174690136653339 -0.051252654458010832 -0.0065023534951362235 -0.049982143609226704 0.03485878196092311 -0.0066795669063270712
leaf_weight=8.3772801905870455 4.5210289768874672 2.3613931797444803 5.2527952045202255 4.4265725389122963 2.3579327836632729
leaf_count=33 29 23 45 20 21
internal_value=0 -0.212855 -0.106178 0.192648 -0.383611
internal_weight=0 18.9197 14.3987 6.78797 7.61073
internal_count=171 138 109 43 66
shrinkage=0.1


Tree=99
num_leaves=6
num_cat=0
split_feature=2 1 6 3 1
split_gain=0.733689 0.481897 1.70652 0.602449 1.04581
threshold=2.7815000000000007 0.31750000000000006 6.1555000000000009 1.2930000000000004 0.11050000000000001
decision_type=2 2 2 2 2
left_child=-1 2 3 4 -2
right_child=1 -3 -4 -5 -6
leaf_value=-0.045265897074886839 -0.049441589927445573 0.026967486578089631 -0.052313547402602772 0.03587731681910785 0.022586815868819662
leaf_weight=2.60812755301595 2.922139368951326 9.0236150324344617 4.6782654821872702 7.3383246809244147 5.4110116027295589
leaf_count=42 26 29 32 22 20
internal_value=0 0.0799248 -0.00115484 0.152995 -0.020659
internal_weight=0 29.3734 20.3497 15.6715 8.33315
internal_count=171 129 100 68 46
shrinkage=0.1


Tree=100
num_leaves=5
num_cat=0
split_feature=2 6 6 1
split_gain=2.11344 0.452202 0.496283 0.191522
threshold=3.8485000000000005 4.1290000000000004 8.3765000000000018 0.25150000000000006
decision_type=2 2 2 2
left_child=-1 -2 -3 -4
right_child=1 2 3 -5
leaf_value=-0.045508273143301643 -0.009208478666219256 0.027217883438424531 0.012797018763023665 -0.0084430817820206651
leaf_weight=8.2815715223550779 9.4999176710844022 16.237636655569077 8.282755374908449 7.9395936429500571
leaf_count=66 29 35 20 21
internal_value=0 0.0920085 0.149182 0.0181647
internal_weight=0 41.9599 32.46 16.2223
internal_count=171 105 76 41
shrinkage=0.1


Tree=101
num_leaves=6
num_cat=0
split_feature=0 1 1 3 6
split_gain=1.89925 1.31044 1.20627 1.53254 0.616694
threshold=0.024500000000000004 0.042500000000000003 0.082500000000000018 1.1870000000000001 10.504000000000003
decision_type=2 2 2 2 2
left_child=1 -1 -3 -4 -5
right_child=-2 2 3 4 -6
leaf_value=0.048246077149465875 -0.051444873372039346 -0.02637188946634178 0.049085467419266976 -0.02276943683092324 0.020975013237644335
leaf_weight=6.2435062676668158 6.2723262831568709 11.819184526801108 7.4748304337263134 8.5967694446444494 4.7239653766155234
leaf_count=21 53 27 22 27 21
internal_value=0 0.0700519 -0.00830822 0.133221 -0.0643584
internal_weight=0 38.8583 32.6147 20.7956 13.3207
internal_count=171 118 97 70 48
shrinkage=0.1


Tree=102
num_leaves=6
num_cat=0
split_feature=2 0 2 6 0
split_gain=2.18478 0.956789 0.145243 0.389852 0.130908
threshold=3.3220000000000005 0.027500000000000004 4.7645000000000008 8.5925000000000029 0.016500000000000004
decision_type=2 2 2 2 2
left_child=1 -1 -2 4 -4
right_child=2 -3 3 -5 -6
leaf_value=0.0023759241334496018 -0.048352691730413871 0.057886323845578638 0.0095077859898359662 -0.047180311722488266 -0.018236364721764649
leaf_weight=7.7483207881450671 3.9506612271070471 5.4979637563228607 2.9388274848461133 3.3580423966050148 3.0740738660097122
leaf_count=31 39 23 22 36 20
internal_value=0 0.266779 -0.302057 -0.206598 -0.031972
internal_weight=0 13.2463 13.3216 9.37094 6.0129
internal_count=171 54 117 78 42
shrinkage=0.1


Tree=103
num_leaves=6
num_cat=0
split_feature=6 6 3 5 1
split_gain=0.687413 0.904484 0.835929 0.773775 0.205913
threshold=3.1795000000000004 4.1290000000000004 1.3795000000000002 12.222000000000001 0.13300000000000003
decision_type=2 2 2 2 2
left_child=4 -2 -3 -4 -1
right_child=1 2 3 -5 -6
leaf_value=-0.045730116388164779 0.048526233030070177 -0.025716709229822877 0.039316701515909241 -0.007762893550577403 -0.0062758302347849767
leaf_weight=2.7022499553859261 4.9076257832348373 7.1358013451099422 6.8330933153629285 6.2574017718434334 3.8996030651032925
leaf_count=44 21 24 20 37 25
internal_value=0 0.108783 0.00868353 0.162816 -0.247651
internal_weight=0 25.1339 20.2263 13.0905 6.60185
internal_count=171 102 81 57 69
shrinkage=0.1


Tree=104
num_leaves=5
num_cat=0
split_feature=6 3 5 3
split_gain=1.95471 0.338886 0.452172 0.468814
threshold=2.8485 1.667 8.4295000000000027 1.3960000000000001
decision_type=2 2 2 2
left_child=-1 2 -2 -4
right_child=1 -3 3 -5
leaf_value=-0.050694111099017183 0.017135442984255365 0.027962152770365095 -0.021911471909612148 0.007045732199326556
leaf_weight=6.4061590880155554 14.584354698657988 6.8600776493549338 9.5717085152864474 12.209010869264601
leaf_count=63 39 20 21 28
internal_value=0 0.07693 0.0346381 -0.0530838
internal_weight=0 43.2252 36.3651 21.7807
internal_count=171 108 88 49
shrinkage=0.1


Tree=105
num_leaves=5
num_cat=0
split_feature=0 1 1 2
split_gain=1.76053 1.22219 1.08942 1.43148
threshold=0.024500000000000004 0.042500000000000003 0.082500000000000018 4.9115000000000011
decision_type=2 2 2 2
left_child=1 -1 -3 -4
right_child=-2 2 3 -5
leaf_value=0.047174316269203195 -0.051062185014357921 -0.025157364111378235 0.033431958294098833 -0.020086125071877611
leaf_weight=6.0537743419408789 5.9101510718464842 11.760491460561751 12.737997844815256 7.7373863011598578
leaf_count=21 53 27 36 34
internal_value=0 0.0668321 -0.00856557 0.127258
internal_weight=0 38.2896 32.2359 20.4754
internal_count=171 118 97 70
shrinkage=0.1


Tree=106
num_leaves=6
num_cat=0
split_feature=5 3 4 0 2
split_gain=2.01702 0.507654 1.13418 0.247075 0.237932
threshold=3.1105000000000005 1.2330000000000003 7.0460000000000003 0.010500000000000001 8.1275000000000013
decision_type=2 2 2 2 2
left_child=-1 -2 3 -3 -4
right_child=1 2 4 -5 -6
leaf_value=0.039848421575860334 -0.050543374521376805 -0.0040439732037132496 -0.049523192976526111 0.032864922874447547 -0.0044756006029827242
leaf_weight=7.8322028070688274 4.192755330353978 2.2383786588907224 4.9175052084028721 4.3158902823925018 2.2493297979235649
leaf_count=33 29 23 45 20 21
internal_value=0 -0.203087 -0.0975812 0.190329 -0.372477
internal_weight=0 17.9139 13.7211 6.55427 7.16684
internal_count=171 138 109 43 66
shrinkage=0.1


Tree=107
num_leaves=5
num_cat=0
split_feature=6 6 1 1
split_gain=0.653008 0.768796 1.66329 0.553575
threshold=3.6465000000000005 6.1555000000000009 0.31750000000000006 0.13300000000000003
decision_type=2 2 2 2
left_child=3 -2 -3 -1
right_child=1 2 -4 -5
leaf_value=-0.048128261373144993 0.030329484877076943 -0.052293354998966785 0.022974809183819139 0.00099711110076709884
leaf_weight=3.7146368902176636 11.350495964288713 4.5377993360161764 7.3922537565231323 4.6078182011842728
leaf_count=54 33 32 25 27
internal_value=0 0.117968 -0.0522049 -0.20371
internal_weight=0 23.2805 11.9301 8.32246
internal_count=171 90 57 81
shrinkage=0.1


Tree=108
num_leaves=5
num_cat=0
split_feature=2 6 6 1
split_gain=1.80589 0.371126 0.498935 0.167051
threshold=3.8485000000000005 4.1290000000000004 8.3765000000000018 0.25150000000000006
decision_type=2 2 2 2
left_child=-1 -2 -3 -4
right_child=1 2 3 -5
leaf_value=-0.044435264342962848 -0.0085982722650481836 0.02567564526502519 0.010667931385173241 -0.009501848333337325
leaf_weight=7.5265336930751792 9.3110158368945104 16.182358354330063 8.1288122832775098 7.8092953860759726
leaf_count=66 29 35 20 21
internal_value=0 0.0820527 0.134087 0.00170286
internal_weight=0 41.4315 32.1205 15.9381
internal_count=171 105 76 41
shrinkage=0.1


Tree=109
num_leaves=6
num_cat=0
split_feature=0 1 1 3 6
split_gain=1.62016 1.13337 0.996671 1.31749 0.611331
threshold=0.024500000000000004 0.042500000000000003 0.082500000000000018 1.1870000000000001 10.504000000000003
decision_type=2 2 2 2 2
left_child=1 -1 -3 -4 -5
right_child=-2 2 3 4 -6
leaf_value=0.045892086886359533 -0.050670024150059716 -0.024254987134318701 0.046650188107368061 -0.022513435673195942 0.021266143344607358
leaf_weight=5.8547905310988417 5.56477391347289 11.731855466961862 7.0042929798364666 8.4259060025215131 4.7072872146964064
leaf_count=21 53 27 22 27 21
internal_value=0 0.0618872 -0.0103417 0.121078 -0.0598804
internal_weight=0 37.7241 31.8693 20.1375 13.1332
internal_count=171 118 97 70 48
shrinkage=0.1


Tree=110
num_leaves=6
num_cat=0
split_feature=2 0 2 6 0
split_gain=1.88009 0.797621 0.158405 0.399755 0.123842
threshold=3.3220000000000005 0.027500000000000004 4.7645000000000008 8.5925000000000029 0.016500000000000004
decision_type=2 2 2 2 2
left_child=1 -1 -2 4 -4
right_child=2 -3 3 -5 -6
leaf_value=0.0033804291055794834 -0.047880658495249188 0.056165223654149082 0.01143425647953613 -0.046599200060132094 -0.016435994645080634
leaf_weight=7.584886848926546 3.7077036350965491 4.9122339189052582 2.8500164337456209 3.1279100328683853 2.9356544613838196
leaf_count=31 39 23 22 36 20
internal_value=0 0.25474 -0.287681 -0.188445 -0.0111315
internal_weight=0 12.4971 12.6213 8.91358 5.78567
internal_count=171 54 117 78 42
shrinkage=0.1


Tree=111
num_leaves=6
num_cat=0
split_feature=3 4 2 0 2
split_gain=0.587964 0.519392 0.901933 1.31342 0.69032
threshold=1.1870000000000001 5.5940000000000012 5.1000000000000005 0.0095000000000000015 7.0040000000000004
decision_type=2 2 2 2 2
left_child=-1 -2 -3 -4 -5
right_child=1 2 3 4 -6
leaf_value=-0.043391479620500918 0.030299961582489522 -0.032592375934070293 -0.04726947912501802 0.041254143069236658 -0.0058164465865709275
leaf_weight=2.2625184673815992 7.1200647167861488 6.0799903944134739 2.7541699633002272 8.9888445883989316 4.1274903044104567
leaf_count=47 34 21 23 22 24
internal_value=0 0.072217 -0.00018717 0.120883 0.25826
internal_weight=0 29.0706 21.9505 15.8705 13.1163
internal_count=171 124 90 69 46
shrinkage=0.1


Tree=112
num_leaves=4
num_cat=0
split_feature=6 0 5
split_gain=1.66985 0.336193 0.704836
threshold=2.8485 0.019500000000000003 8.9985000000000017
decision_type=2 2 2
left_child=-1 2 -2
right_child=1 -3 -4
leaf_value=-0.049985902465303683 -0.019582764953436055 0.018036185058103907 0.013324514230797044
leaf_weight=5.6889090836048117 10.830976456403734 16.235151633620262 15.673087462782858
leaf_count=63 31 39 38
internal_value=0 0.0679825 -0
internal_weight=0 42.7392 26.5041
internal_count=171 108 69
shrinkage=0.1


Tree=113
num_leaves=6
num_cat=0
split_feature=1 1 1 3 5
split_gain=1.49996 0.918618 1.14598 0.561434 0.135672
threshold=0.17500000000000002 0.042500000000000003 0.082500000000000018 1.1870000000000001 16.174500000000005
decision_type=2 2 2 2 2
left_child=1 -1 -3 -4 -2
right_child=4 2 3 -5 -6
leaf_value=0.043490601244252441 -0.050446894783909214 -0.023423260442509489 0.037234039717104393 0 -0.014385487392274974
leaf_weight=5.7575524225831023 5.193030670285224 11.773780480027201 7.3771216124296215 9.6793145537376386 2.6778858937323093
leaf_count=22 44 28 29 28 20
internal_value=0 0.0773643 1.22489e-05 0.168343 -0.400774
internal_weight=0 34.5878 28.8302 17.0564 7.87092
internal_count=171 107 85 57 64
shrinkage=0.1


Tree=114
num_leaves=6
num_cat=0
split_feature=2 0 2 6 0
split_gain=1.7401 0.707938 0.16028 0.393187 0.111902
threshold=3.3220000000000005 0.027500000000000004 4.7645000000000008 8.5925000000000029 0.016500000000000004
decision_type=2 2 2 2 2
left_child=1 -1 -2 4 -4
right_child=2 -3 3 -5 -6
leaf_value=0.0041746452619598447 -0.047548426992943427 0.055180995582416695 0.011236777694809547 -0.046232866057260763 -0.015475161978233979
leaf_weight=7.4894533157348651 3.5523868761956683 4.5969561338424683 2.8569612056016904 2.9964689649641514 2.8678146079182625
leaf_count=31 39 23 22 36 20
internal_value=0 0.249708 -0.280052 -0.180363 -0.00527368
internal_weight=0 12.0864 12.2736 8.72124 5.72478
internal_count=171 54 117 78 42
shrinkage=0.1


Tree=115
num_leaves=5
num_cat=0
split_feature=6 6 1 1
split_gain=0.581594 0.69413 1.52089 0.512095
threshold=3.6465000000000005 6.1555000000000009 0.31750000000000006 0.13300000000000003
decision_type=2 2 2 2
left_child=3 -2 -3 -1
right_child=1 2 -4 -5
leaf_value=-0.047686583336517277 0.028656212169591438 -0.051932613550846045 0.021091633189725699 0.0005301067311650877
leaf_weight=3.442946672439577 11.400571987032892 4.2951117828488332 7.4575798958539963 4.567835558205843
leaf_count=54 33 32 25 27
internal_value=0 0.111546 -0.0518143 -0.196318
internal_weight=0 23.1533 11.7527 8.01078
internal_count=171 90 57 81
shrinkage=0.1


Tree=116
num_leaves=4
num_cat=0
split_feature=6 0 5
split_gain=1.53216 0.320927 0.6046
threshold=2.8485 0.019500000000000003 8.9985000000000017
decision_type=2 2 2
left_child=-1 2 -2
right_child=1 -3 -4
leaf_value=-0.049602888101287046 -0.018647079628358935 0.017322652062265308 0.011986468164979844
leaf_weight=5.3394750282168379 10.691475763916971 16.130992025136948 15.52764457464218
leaf_count=63 31 39 38
internal_value=0 0.0630599 -0.00173182
internal_weight=0 42.3501 26.2191
internal_count=171 108 69
shrinkage=0.1


Tree=117
num_leaves=5
num_cat=0
split_feature=0 1 1 2
split_gain=1.40669 0.967489 0.841841 1.11971
threshold=0.024500000000000004 0.042500000000000003 0.082500000000000018 4.9115000000000011
decision_type=2 2 2 2
left_child=1 -1 -3 -4
right_child=-2 2 3 -5
leaf_value=0.043474235993114993 -0.050031222365428431 -0.022484483726759003 0.03016610863746676 -0.018174911935708218
leaf_weight=5.4814274087548247 5.0016874112188807 11.638160020112993 12.050053104758264 7.439127802848815
leaf_count=21 53 27 36 34
internal_value=0 0.0547469 -0.0113252 0.11209
internal_weight=0 36.6088 31.1273 19.4892
internal_count=171 118 97 70
shrinkage=0.1


Tree=118
num_leaves=6
num_cat=0
split_feature=2 0 2 6 0
split_gain=1.61911 0.652258 0.161565 0.380204 0.0998766
threshold=3.3220000000000005 0.027500000000000004 4.7645000000000008 8.5925000000000029 0.016500000000000004
decision_type=2 2 2 2 2
left_child=1 -1 -2 4 -4
right_child=2 -3 3 -5 -6
leaf_value=0.0046307693642100691 -0.04719182814057829 0.054523725373656365 0.010782560350529973 -0.045787011972436592 -0.014600377676090279
leaf_weight=7.4264548420906085 3.3969196639955035 4.3725902587175369 2.8748483508825284 2.8483085073530674 2.8087345138192177
leaf_count=31 39 23 22 36 20
internal_value=0 0.245545 -0.272155 -0.172181 -0.00131539
internal_weight=0 11.799 11.9288 8.53189 5.68358
internal_count=171 54 117 78 42
shrinkage=0.1


Tree=119
num_leaves=6
num_cat=0
split_feature=6 6 3 5 1
split_gain=0.530599 0.79172 0.809016 0.615828 0.166549
threshold=3.1795000000000004 4.1290000000000004 1.3795000000000002 12.222000000000001 0.13300000000000003
decision_type=2 2 2 2 2
left_child=4 -2 -3 -4 -1
right_child=1 2 3 -5 -6
leaf_value=-0.044241334991609704 0.044626508150606259 -0.026187226207281318 0.035728495777825511 -0.0064200659363475802 -0.0060864064584687065
leaf_weight=2.2280224971473244 4.9483037963509586 7.0487930402159718 6.8660235404968244 6.0541594848036766 3.7708257623016834
leaf_count=44 21 24 20 37 25
internal_value=0 0.0964401 0.00122986 0.154195 -0.228409
internal_weight=0 24.9173 19.969 12.9202 5.99885
internal_count=171 102 81 57 69
shrinkage=0.1


Tree=120
num_leaves=6
num_cat=0
split_feature=5 2 2 3 1
split_gain=1.4108 0.35114 0.747273 0.32884 0.335896
threshold=5.5700000000000012 4.408500000000001 5.3490000000000011 1.3960000000000001 0.29050000000000004
decision_type=2 2 2 2 2
left_child=-1 -2 -3 -4 -5
right_child=1 2 3 4 -6
leaf_value=-0.049241556850760787 0.025397468111234757 -0.021809064670874928 -0.0035050649218372702 0.03255975092373542 0.0017287401755437172
leaf_weight=5.0249539501965037 7.3905707821249953 9.6242352202534658 9.1224521100521105 8.633841395378111 7.1410261392593375
leaf_count=63 21 24 21 22 20
internal_value=0 0.058455 0.0124952 0.106642 0.194254
internal_weight=0 41.9121 34.5216 24.8973 15.7749
internal_count=171 108 87 63 42
shrinkage=0.1


Tree=121
num_leaves=6
num_cat=0
split_feature=0 1 1 3 6
split_gain=1.29279 0.895023 0.762297 1.03976 0.612031
threshold=0.024500000000000004 0.042500000000000003 0.082500000000000018 1.1870000000000001 10.504000000000003
decision_type=2 2 2 2 2
left_child=1 -1 -3 -4 -5
right_child=-2 2 3 4 -6
leaf_value=0.042225240387761855 -0.049637206794976074 -0.021607156423756289 0.043145097523885553 -0.022122414339148331 0.022102931705347502
leaf_weight=5.312123902142047 4.6948178559541693 11.581430435180666 6.3628113269805935 8.1759069636464101 4.6603246405720702
leaf_count=21 53 27 22 27 21
internal_value=0 0.0505538 -0.0126783 0.105822 -0.052061
internal_weight=0 36.0926 30.7805 19.199 12.8362
internal_count=171 118 97 70 48
shrinkage=0.1


Tree=122
num_leaves=6
num_cat=0
split_feature=5 3 4 2 0
split_gain=1.5097 0.481996 1.01844 0.29464 0.184113
threshold=3.1105000000000005 1.2330000000000003 7.0460000000000003 8.1275000000000013 0.010500000000000001
decision_type=2 2 2 2 2
left_child=-1 -2 4 -4 -3
right_child=1 2 3 -5 -6
leaf_value=0.036975128101905862 -0.049393183541170241 -0 -0.048909977611705152 -0 0.032860114779783046
leaf_weight=6.9312258437275913 3.6898193545639542 2.0275011844933015 4.4599446654319763 1.9702097177505493 3.9894998967647552
leaf_count=33 29 23 45 21 20
internal_value=0 -0.181288 -0.0743565 -0.351701 0.207726
internal_weight=0 16.137 12.4472 6.43015 6.017
internal_count=171 138 109 66 43
shrinkage=0.1


Tree=123
num_leaves=6
num_cat=0
split_feature=6 6 1 3 1
split_gain=0.501198 0.607004 1.15098 0.492586 0.444173
threshold=3.6465000000000005 5.8095000000000008 0.31750000000000006 1.2275000000000003 0.13300000000000003
decision_type=2 2 2 2 2
left_child=3 -2 -3 4 -1
right_child=1 2 -4 -5 -6
leaf_value=-0.03990190455313597 0.028387218464413329 -0.039276195060442602 0.020816266230312228 -0.049711642871954571 0.022112639376108571
leaf_weight=1.5235431343317056 10.418314784765245 5.2143232747912389 7.4315735548734665 2.8681883551180363 3.2717271782457829
leaf_count=37 30 35 25 22 22
internal_value=0 0.106443 -0.0340912 -0.183797 0
internal_weight=0 23.0642 12.6459 7.66346 4.79527
internal_count=171 90 60 81 59
shrinkage=0.1


Tree=124
num_leaves=5
num_cat=0
split_feature=2 5 3 1
split_gain=1.3142 0.38587 0.782944 0.208865
threshold=3.8485000000000005 8.4295000000000027 1.3960000000000001 0.31750000000000006
decision_type=2 2 2 2
left_child=-1 -2 -3 -4
right_child=1 2 3 -5
leaf_value=-0.042184741261854064 0.020648826056263427 -0.023281746187703817 0.021372220567032155 -0
leaf_weight=6.2289760522544375 12.840201079845427 9.4393139630556124 10.074698820710184 7.8746079802513114
leaf_count=66 37 21 26 21
internal_value=0 0.0648703 -0 0.119794
internal_weight=0 40.2288 27.3886 17.9493
internal_count=171 105 68 47
shrinkage=0.1


Tree=125
num_leaves=5
num_cat=0
split_feature=1 1 1 3
split_gain=1.2418 0.771564 0.742923 0.492672
threshold=0.22900000000000004 0.042500000000000003 0.082500000000000018 1.1870000000000001
decision_type=2 2 2 2
left_child=1 -1 -3 -4
right_child=-2 2 3 -5
leaf_value=0.039940842833648474 -0.048989820623352477 -0.020795236033065306 0.031974468219450852 -0.00059222999326984419
leaf_weight=5.2020901292562476 4.6104830019175997 11.583930820226671 6.9165641739964512 11.712115406990049
leaf_count=22 48 28 34 39
internal_value=0 0.0508801 -0.00807428 0.111794
internal_weight=0 35.4147 30.2126 18.6287
internal_count=171 123 101 73
shrinkage=0.1


Tree=126
num_leaves=6
num_cat=0
split_feature=2 0 2 1 0
split_gain=1.39573 0.551023 0.173941 0.38428 0.676327
threshold=3.3220000000000005 0.027500000000000004 4.7645000000000008 0.25150000000000006 0.0075000000000000006
decision_type=2 2 2 2 2
left_child=1 -1 -2 4 -4
right_child=2 -3 3 -5 -6
leaf_value=0.0052662552620134119 -0.04674853604329867 0.053112149006241872 -0.043767644820470908 -0.045615131388066617 0.025932157370708298
leaf_weight=7.2959350571036357 3.2078163865953675 3.9037889316678047 2.0260511822998506 2.6053047217428684 3.5161631368100643
leaf_count=31 39 23 21 31 26
internal_value=0 0.234599 -0.25818 -0.154567 -0
internal_weight=0 11.1997 11.3553 8.14752 5.54221
internal_count=171 54 117 78 47
shrinkage=0.1


Tree=127
num_leaves=6
num_cat=0
split_feature=6 6 1 3 1
split_gain=0.456426 0.538171 1.35908 0.463796 0.399665
threshold=3.6465000000000005 6.1555000000000009 0.31750000000000006 1.2275000000000003 0.13300000000000003
decision_type=2 2 2 2 2
left_child=3 -2 -3 4 -1
right_child=1 2 -4 -5 -6
leaf_value=-0.039320963114786854 0.025126259590269973 -0.051220219268742241 0.019394433577801171 -0.049168098043885639 0.02031945667832788
leaf_weight=1.4470704719424272 11.600982867181303 3.9708793982863408 7.5081739723682404 2.7425121627748013 3.3120379820466042
leaf_count=37 33 32 25 22 22
internal_value=0 0.0998181 -0.0463545 -0.179286 0
internal_weight=0 23.08 11.4791 7.50162 4.75911
internal_count=171 90 57 81 59
shrinkage=0.1


Tree=128
num_leaves=4
num_cat=0
split_feature=6 5 3
split_gain=1.22654 0.327759 0.671749
threshold=2.8485 8.4295000000000027 1.5625000000000002
decision_type=2 2 2
left_child=-1 -2 -3
right_child=1 2 -4
leaf_value=-0.048606332710516044 0.017591855752843513 -0.013842644510837464 0.017811039405546635
leaf_weight=4.5113043375313273 13.998661786317824 16.489826992154125 10.951369583606718
leaf_count=63 39 37 32
internal_value=0 0.0522017 -0.00810886
internal_weight=0 41.4399 27.4412
internal_count=171 108 69
shrinkage=0.1


Tree=129
num_leaves=5
num_cat=0
split_feature=1 1 1 3
split_gain=1.15794 0.710206 0.856447 0.44903
threshold=0.22900000000000004 0.046500000000000007 0.082500000000000018 1.1870000000000001
decision_type=2 2 2 2
left_child=1 -1 -3 -4
right_child=-2 2 3 -5
leaf_value=0.034928082074146466 -0.048601349022026175 -0.024582767050095808 0.031130565208390682 -0.00016860915108501108
leaf_weight=6.229203149676322 4.3782735541462889 10.37114153057337 6.7521754130721119 11.642455898225306
leaf_count=25 48 25 34 39
internal_value=0 0.0480524 -0.0156873 0.109939
internal_weight=0 34.995 28.7658 18.3946
internal_count=171 123 98 73
shrinkage=0.1


Tree=130
num_leaves=6
num_cat=0
split_feature=5 3 4 2 0
split_gain=1.32856 0.450304 0.908288 0.296471 0.140791
threshold=3.1105000000000005 1.2330000000000003 7.0460000000000003 8.1275000000000013 0.010500000000000001
decision_type=2 2 2 2 2
left_child=-1 -2 4 -4 -3
right_child=1 2 3 -5 -6
leaf_value=0.035433890732375205 -0.04871291601572568 -0 -0.048420537388090712 -0 0.030391836042822553
leaf_weight=6.6736193969845798 3.4256620313972226 1.9504925850778798 4.1593740284442902 1.917981222271919 3.9153103902935982
leaf_count=33 29 23 45 21 20
internal_value=0 -0.173136 -0.0682978 -0.339987 0.198633
internal_weight=0 15.3688 11.9432 6.07736 5.8658
internal_count=171 138 109 66 43
shrinkage=0.1


Tree=131
num_leaves=6
num_cat=0
split_feature=6 6 3 5 1
split_gain=0.414478 0.751258 0.835264 0.527861 0.142157
threshold=3.1795000000000004 4.1290000000000004 1.3795000000000002 12.222000000000001 0.13300000000000003
decision_type=2 2 2 2 2
left_child=4 -2 -3 -4 -1
right_child=1 2 3 -5 -6
leaf_value=-0.042763115616861316 0.042562363598619903 -0.027424638777002765 0.033559393300650914 -0.0055660058407040391 -0.0054606461924933888
leaf_weight=1.9126416686922336 4.9422622956335571 7.0833243764936951 6.8711950406432134 5.9190689437091351 3.6479741148650646
leaf_count=44 21 24 20 37 25
internal_value=0 0.0848944 -0 0.148762 -0.210664
internal_weight=0 24.8159 19.8736 12.7903 5.56062
internal_count=171 102 81 57 69
shrinkage=0.1


Tree=132
num_leaves=5
num_cat=0
split_feature=6 5 3 1
split_gain=1.13334 0.318926 0.628884 0.227764
threshold=2.8485 8.4295000000000027 1.3960000000000001 0.31750000000000006
decision_type=2 2 2 2
left_child=-1 -2 -3 -4
right_child=1 2 3 -5
leaf_value=-0.048235025203463511 0.017045961714290941 -0.022203852055975758 0.019582989968091491 -0.0019850886787961259
leaf_weight=4.2570694908499709 13.967944130301474 9.3628276139497775 9.8554974794387835 8.0136812925338727
leaf_count=63 39 21 26 22
internal_value=0 0.0482577 -0.0115631 0.0944215
internal_weight=0 41.2 27.232 17.8692
internal_count=171 108 69 48
shrinkage=0.1


Tree=133
num_leaves=5
num_cat=0
split_feature=0 1 1 2
split_gain=1.10662 0.700674 0.630085 0.832891
threshold=0.024500000000000004 0.042500000000000003 0.082500000000000018 4.9115000000000011
decision_type=2 2 2 2
left_child=1 -1 -3 -4
right_child=-2 2 3 -5
leaf_value=0.039042454559674138 -0.048915990227061182 -0.019408796577287224 0.027229385542436736 -0.015567893025928507
leaf_weight=4.8675973042845717 4.1327715776860705 11.458556056022646 11.268222078680994 7.0591201037168494
leaf_count=21 53 27 36 34
internal_value=0 0.0461464 -0.00900927 0.102154
internal_weight=0 34.6535 29.7859 18.3273
internal_count=171 118 97 70
shrinkage=0.1


Tree=134
num_leaves=6
num_cat=0
split_feature=2 0 0 1 6
split_gain=1.22019 0.488686 0.181351 0.585023 0.450338
threshold=3.3220000000000005 0.027500000000000004 0.022500000000000003 0.17500000000000002 3.5610000000000004
decision_type=2 2 2 2 2
left_child=1 -1 3 4 -2
right_child=2 -3 -4 -5 -6
leaf_value=0.0054806419107486654 0.010873026285832244 0.051951821371046064 -0.046823822872454852 0.02392288208974247 -0.048405139636566986
leaf_weight=7.201621890068056 1.368156248703597 3.5977168157696724 2.9071826860308647 2.3623185344040394 4.2073146272450686
leaf_count=31 20 23 32 20 45
internal_value=0 0.225344 -0.244888 -0.141301 -0.322547
internal_weight=0 10.7993 10.845 7.93779 5.57547
internal_count=171 54 117 85 65
shrinkage=0.1


Tree=135
num_leaves=6
num_cat=0
split_feature=3 6 6 3 1
split_gain=0.395185 0.722139 0.800677 0.453122 0.358963
threshold=1.6345000000000003 6.1555000000000009 3.6465000000000005 1.2275000000000003 0.13300000000000003
decision_type=2 2 2 2 2
left_child=1 2 3 4 -1
right_child=-2 -3 -4 -5 -6
leaf_value=-0.038134040332503269 0.030349083670238794 -0.028203059739966188 0.024928152370539164 -0.04853284816343275 0.019988398551412597
leaf_weight=1.3096568193286753 4.2271910198032847 7.3342633619904509 11.462946072220801 2.6006710100919008 3.292345967143774
leaf_count=37 23 35 32 22 22
internal_value=0 -0.017344 0.0832457 -0.167085 0.00465866
internal_weight=0 25.9999 18.6656 7.20267 4.602
internal_count=171 148 113 81 59
shrinkage=0.1


Tree=136
num_leaves=4
num_cat=0
split_feature=2 5 3
split_gain=1.06762 0.363338 0.670121
threshold=3.8485000000000005 8.4295000000000027 1.5625000000000002
decision_type=2 2 2
left_child=-1 -2 -3
right_child=1 2 -4
leaf_value=-0.04091248708985528 0.019217523153943331 -0.013829624582854756 0.018260696562598662
leaf_weight=5.4933473337441674 12.689360447227953 16.353616908192638 10.466493427753447
leaf_count=66 37 37 31
internal_value=0 0.0537778 -0.00893879
internal_weight=0 39.5095 26.8201
internal_count=171 105 68
shrinkage=0.1


Tree=137
num_leaves=6
num_cat=0
split_feature=1 1 1 3 0
split_gain=1.03263 0.613628 0.663271 0.598103 0.506921
threshold=0.22900000000000004 0.042500000000000003 0.16750000000000004 1.1505000000000003 0.0075000000000000006
decision_type=2 2 2 2 2
left_child=1 -1 3 -3 -5
right_child=-2 2 -4 4 -6
leaf_value=0.03690582978689598 -0.047971355244683517 0.018622594161378316 0.03460251665706348 0.00044742705944678438 -0.031157838585178316
leaf_weight=4.7983562760055056 4.005485462024807 6.1670890413224759 4.2310846410691729 8.6456092894077319 10.288587033748625
leaf_count=22 48 28 22 21 30
internal_value=0 0.0447188 -0.0070924 -0.0728312 -0.1635
internal_weight=0 34.1307 29.3324 25.1013 18.9342
internal_count=171 123 101 79 51
shrinkage=0.1


Tree=138
num_leaves=6
num_cat=0
split_feature=5 3 4 2 0
split_gain=1.13915 0.433381 0.839789 0.291202 0.108574
threshold=3.1105000000000005 1.2330000000000003 7.0460000000000003 8.1275000000000013 0.010500000000000001
decision_type=2 2 2 2 2
left_child=-1 -2 4 -4 -3
right_child=1 2 3 -5 -6
leaf_value=0.033454978430980546 -0.048077472569450025 0 -0.04790674739971551 -0 0.029319171044982124
leaf_weight=6.4571349173784283 3.2091850135475388 1.8633673973381499 3.8724982589483261 1.8884428963065145 3.8103037104010582
leaf_count=33 29 23 45 21 20
internal_value=0 -0.163016 -0.0585081 -0.328551 0.200514
internal_weight=0 14.6438 11.4346 5.76094 5.67367
internal_count=171 138 109 66 43
shrinkage=0.1


Tree=139
num_leaves=5
num_cat=0
split_feature=1 6 3 1
split_gain=0.355521 1.03361 0.588337 0.770659
threshold=0.31750000000000006 6.1555000000000009 1.2930000000000004 0.13300000000000003
decision_type=2 2 2 2
left_child=1 2 3 -1
right_child=-2 -3 -4 -5
leaf_value=-0.048881765259452072 0.018645519175003927 -0.050712050410707289 0.026304923174985829 0.009436988005986597
leaf_weight=3.2180591896176427 9.4119546413421613 3.7581984698772422 7.6498597636818877 6.0479625053703785
leaf_count=57 33 32 22 27
internal_value=0 -0.0442449 0.0574736 -0.103654
internal_weight=0 20.6741 16.9159 9.26602
internal_count=171 138 106 84
shrinkage=0.1


Tree=140
num_leaves=5
num_cat=0
split_feature=6 2 2 2
split_gain=0.988304 0.313638 0.619721 0.261982
threshold=2.8485 4.408500000000001 5.3490000000000011 7.9150000000000009
decision_type=2 2 2 2
left_child=-1 -2 -3 -4
right_child=1 2 3 -5
leaf_value=-0.04756569787016536 0.022759355647563935 -0.021293294067820729 0.016258393759956986 -0.0048687273519647236
leaf_weight=3.8392601087689391 7.2940263301134101 9.4582733958959562 15.836554288864138 8.1908184289932233
leaf_count=63 22 23 39 24
internal_value=0 0.0426501 0 0.0866276
internal_weight=0 40.7797 33.4856 24.0274
internal_count=171 108 86 63
shrinkage=0.1


Tree=141
num_leaves=5
num_cat=0
split_feature=0 1 1 2
split_gain=0.980572 0.595926 0.608316 0.734923
threshold=0.024500000000000004 0.042500000000000003 0.082500000000000018 4.9115000000000011
decision_type=2 2 2 2
left_child=1 -1 -3 -4
right_child=-2 2 3 -5
leaf_value=0.036927173073631671 -0.0482719536388641 -0.018965779558704519 0.026467184383717559 -0.014185654327494943
leaf_weight=4.5964864417910567 3.7669832762330762 11.421009793877603 11.006523385643961 6.8641895353794089
leaf_count=21 53 27 36 34
internal_value=0 0.0419835 -0.00814009 0.103148
internal_weight=0 33.8882 29.2917 17.8707
internal_count=171 118 97 70
shrinkage=0.1


Tree=142
num_leaves=6
num_cat=0
split_feature=5 3 4 2 0
split_gain=1.0443 0.412844 0.773915 0.28561 0.0954473
threshold=3.1105000000000005 1.2330000000000003 7.0460000000000003 8.1275000000000013 0.010500000000000001
decision_type=2 2 2 2 2
left_child=-1 -2 4 -4 -3
right_child=1 2 3 -5 -6
leaf_value=0.031989934446056988 -0.047651848697665047 0 -0.047579916048471935 -0 0.027619722958869386
leaf_weight=6.4411280825734165 3.0645175930112591 1.8577291183173636 3.7080475371330976 1.8791349232196806 3.8216736018657684
leaf_count=33 29 23 45 21 20
internal_value=0 -0.158482 -0.0564528 -0.321752 0.189596
internal_weight=0 14.3311 11.2666 5.58718 5.6794
internal_count=171 138 109 66 43
shrinkage=0.1


Tree=143
num_leaves=7
num_cat=0
split_feature=6 1 0 1 6 0
split_gain=0.363943 1.31353 0.776745 0.704325 0.441469 0.163941
threshold=8.3765000000000018 0.25150000000000006 0.021500000000000002 0.10250000000000001 3.7860000000000005 0.048500000000000008
decision_type=2 2 2 2 2 2
left_child=2 -2 3 4 -1 -4
right_child=1 -3 5 -5 -6 -7
leaf_value=-0.045028650275826865 -0.043848432638177309 0.046357092841696437 -0.031935342831328817 0.033385062465054641 0.0064542106552603756 0
leaf_weight=2.3096557697281295 1.9543637298047531 5.6233884692192078 7.6662374939769489 6.8631731811910868 4.1120541729032993 1.3499334724619982
leaf_count=42 21 21 25 22 20 20
